,0,1,2,3,4,5,6,7,8,9,10,11,12,13,14,15,16,17,18,19,20,21,22,23,24,25,26,27,28,29,30,31,32,33,34,35,36,37,38,39,40,41,42,43,44,45,46,47,48,49,50,51,52,53,54,55,56,57,58,59,60,61,62,63,64,65,66,67,68,69,70,71,72,73,74,75,76,77,78,79,80,81,82,83,84,85,86,87,88,89,90,91,92,93,94,95,96,97,98,99,100,101,102,103,104,105,106,107,108,109,110,111,112,113,114,115,116,117,118,119,120,121,122,123,124,125,126,127,128,129,130,131,132,133,134,135,136,137,138,139,140,141,142,143,144,145,146,147,148,149,150,151,152,153,154,155,156,157,158,159,160,161,162,163,164,165,166,167,168,169,170,171,172,173,174,175,176,177,178,179,180,181,182,183,184,185,186,187,188,189,190,191,192,193,194,195,196,197,198,199,200,201,202,203,204,205,206,207,208,209,210,211,212,213,214,215,216,217,218,219,220,221,222,223,224,225,226,227,228,229,230,231,232,233,234,235,236,237,238,239,240,241,242,243,244,245,246,247,248,249,250,251,252,253,254,255,256,257,258,259,260,261,262,263,264,265,266,267,268,269,270,271,272,273,274,275,276,277,278,279,280,281,282,283,284,285,286,287,288,289,290,291,292,293,294,295,296,297,298,299,300,301,302,303,304,305,306,307,308,309,310,311,312,313,314,315,316,317,318,319,320,321,322,323,324,325,326,327,328,329,330,331,332,333,334,335,336,337,338,339,340,341,342,343,344,345,346,347,348,349,350,351,352,353,354,355,356,357,358,359,360,361,362,363,364,365,366,367,368,369,370,371,372,373,374,375,376,377,378,379,380,381,382,383,384,385,386,387,388,389,390,391,392,393,394,395,396,397,398,399,400,401,402,403,404,405,406,407,408,409,410,411,412,413,414,415,416,417,418,419,420,421,422,423,424,425,426,427,428,429,430,431,432,433,434,435,436,437,438,439,440,441,442,443,444,445,446,447,448,449,450,451,452,453,454,455,456,457,458,459,460,461,462,463,464,465,466,467,468,469,470,471,472,473,474,475,476,477,478,479,480,481,482,483,484,485,486,487,488,489,490,491,492,493,494,495,496,497,498,499,500,501,502,503,504,505,506,507,508,509,510,511,512,513,514,515,516,517,518,519,520,521,522,523,524,525,526,527,528,529,530,531,532,533,534,535,536,537,538,539,540,541,542,543,544,545,546,547,548,549,550,551,552,553,554,555,556,557,558,559,560,561,562,563,564,565,566,567,568,569,570,571,572,573,574,575,576,577,578,579,580,581,582,583,584,585,586,587,588,589,590,591,592,593,594,595,596,597,598,599,600,601,602,603,604,605,606,607,608,609,610,611,612,613,614,615,616,617,618,619,620,621,622,623,624,625,626,627,628,629,630,631,632,633,634,635,636,637,638,639,640,641,642,643,644,645,646,647,648,649,650,651,652,653,654,655,656,657,658,659,660,661,662,663,664,665,666,667,668,669,670,671,672,673,674,675,676,677,678,679,680,681,682,683,684,685,686,687,688,689,690,691,692,693,694,695,696,697,698,699,700,701,702,703,704,705,706,707,708,709,710,711,712,713,714,715,716,717,718,719,720,721,722,723,724,725,726,727,728,729,730,731,732,733,734,735,736,737,738,739,740,741,742,743,744,745,746,747,748,749,750,751,752,753,754,755,756,757,758,759,760,761,762,763,764,765,766,767,768,769,770,771,772,773,774,775,776,777,778,779,780,781,782,783
0,-0.2589922841093593,-0.4577771744250497,0.3325153767477654,0.0383692095001192,-0.1446243455943371,0.3441308561425543,-0.4386140412601039,0.2256775251362534,0.3597507269882329,0.1012503058685355,-0.0338646188821717,0.0206739252929035,0.21785413053653066,0.3330907796568897,0.17990344526896995,-0.2661007710552476,-0.4521808189781441,-0.3432097647865046,0.4965417698947922,-0.3319966374827704,0.1997840519279933,0.280853867242926,0.3679375561758249,0.3260613569527628,-0.393643807422687,0.3241332581940833,0.2791042528096813,-0.4322815484696554,0.0403470876893181,0.0312738110472124,0.1166554567577664,0.0052304669608781,0.44551120713396875,-0.2743332017376253,0.2139912709413185,-0.04816471027263286,-0.13841154858418922,0.47640654947151956,0.24456635712103433,-0.401631085973517,0.04469368977356764,-0.08509974710896616,-0.26365056782385604,-0.11270192894730226,0.009294666174835006,-0.2903537242028216,-0.045480573317136466,-0.28223953161600296,-0.4724069084797725,-0.40763868681687093,0.20291843347677901,-0.01727802281288094,0.2654131263389224,-0.3765051181626387,-0.3414956130830787,-0.450630920130296,-0.3120599297963462,-0.1140246946939697,0.49867199032803544,0.3328412650970783,-0.4544708823995322,0.3226223087171552,0.26112209123802915,-0.17608613320523372,-0.2990750834972472,-0.370496227435762,0.06878641646689555,0.05123478977170235,0.06649728604110051,0.4460797417459318,-0.2479057174853148,0.25243103001422434,-0.05840785949935746,0.21981768971346283,-0.016029397934546247,-0.2705418131483725,-0.2631302620293974,0.2289789770884334,0.20918474491441316,0.48043384821809604,0.02726562438306379,0.36981854784304935,-0.4521273173277903,-0.1434192926434314,0.1149464201113144,-0.4327218268341164,0.152511568568479,0.4340797232810303,0.4234157847175982,0.16472710422639128,-0.2286373177704406,-0.13930403099780778,0.24119033067041631,-0.21587526754392805,0.5405019691903995,0.41390630798020417,-0.3510529003160997,0.4062964598348092,0.42024404609157273,0.00964945991648817,-0.07368334869378564,-0.07230129846079135,0.3616390094652863,0.20985898127693478,-0.21102615145934114,-0.03696014140055609,-0.4328627138982765,0.30919687531566015,0.23501156399536707,-0.44170678497812244,-0.3723685053327221,0.1334027860900218,-0.3724410767427017,-0.10042051368836308,-0.04373987556779641,0.4944491624667489,0.1492806297315798,-0.18048149623406234,-0.24997108635945633,-0.2492044085783962,0.038280281872147943,0.21893091909151902,0.31115250847186626,0.3409050415344285,0.08971754442341849,0.2770555494182848,0.4856695985442449,0.13929321119954563,0.17266972060907718,0.4299885667480994,0.18954288413136952,0.12852694589468577,0.4954507118143319,0.21834937277401315,-0.36576076203279295,0.09417395617434075,0.3834855731547089,-0.24698053288336919,0.2172258251227017,-0.2186570536867335,-0.4028731538700907,-0.1945139633119953,0.3400333293564823,-0.2560842388283946,-0.4685317152723936,-0.3882533701436998,0.3700154160343732,-0.12744313446961084,0.07558964352052483,0.6585544913641722,0.11139719868463228,0.2688080473047867,0.3968965924428691,0.2050779945723571,-0.095194906280786,0.41912735293613035,0.07238041902356165,0.010043663786545394,0.5168304016219177,0.28370332996939446,-0.3572352290900772,0.021485425288575166,0.36122902869939044,0.05427773782641603,0.4205629393385853,-0.2896036580336067,0.2098343623107178,0.14236343661056022,-0.4551660709016826,0.018010556169800726,0.32724718603940206,-0.1706463784690646,0.20202301445678114,-0.3620630661551976,-0.2050086426865848,-0.17598063254708526,0.1953224193831876,-0.10559042170939326,-0.1345014578980419,-0.16626461715945737,0.029053889510103237,-0.1697108393711364,0.16512372347805976,-0.17293998575169237,0.057578654483458634,0.31038511682372383,0.007346537263269382,0.06881300416739293,0.3282052030585285,0.16619845318871124,-0.31171216438340554,0.272910829919984,-0.08850922944715116,-0.15442495866009395,-0.2368436971648567,0.41589517502413786,0.4820524506096061,-0.0041144979651682395,-0.197467910606369,0.14908977992613376,0.4514448511084317,-0.39160103747670755,-0.16245688343030984,0.3176698353546414,0.2710273439657269,0.1581374558625638,0.36549447606622193,-0.01323632790751712,-0.22611638845541907,0.5054650969268852,0.3204940478616744,0.017496108104305838,0.2289576285444601,-0.12533722961682994,-0.23980554514881153,-0.5337172868211426,0.17012711786716014,-0.1256227643638431,0.10335464687760243,0.3816978137304858,0.16707198090198352,0.47198141060798443,-0.157912408123752,-0.3472645636565095,-0.2854123141452318,0.4756255810320728,-0.40355983160538006,-0.036812818008108414,-0.3419202042492113,-0.22289815381363326,-0.17142615545451173,-0.25252662616204186,0.4340680821032099,-0.09065166214608282,0.4312011480629471,0.023740575049628974,0.23166337668094641,0.12586725519832498,-0.20642460111619426,-0.34538844754796555,0.14859722327008368,-0.3042758868837679,0.03483134327098611,0.2655839339286236,0.28142893059762003,0.007044149751860171,-0.32300093137618774,0.21512505977907992,-0.549125157510802,0.31030906810968173,0.01747152147592705,0.42720722851470594,-0.21194798468201814,0.14896371510648765,-0.3841212713811704,0.14605191444222818,0.045786503101425347,-0.10115618845937216,0.24693322508843393,-0.025279046987628125,-0.3377111502832683,0.19593326690197005,0.002124625186015006,0.5004594031329255,-0.41709022950695784,-0.3171528588438263,-0.34600969019134814,0.09380578761116397,0.01305521146801909,-0.09519300357574201,0.18091328180182803,-0.35737560492405573,-0.19957528266565355,0.2139666358343425,-0.6344178887691873,0.2319734726495152,0.16880498230694468,-0.48578718645348884,-0.3611314279353108,-0.41595997717889527,-0.23913999062404306,-0.4416770501143569,-0.06276227358609965,-0.03089138125405158,0.016719261046306583,-0.42177874426115175,-0.25084346529743695,-0.3806480824408791,-0.19451021798420726,0.2207427772763487,-0.4112390539251612,-0.2834747433283596,-0.009352019667079735,-0.25314327291398103,-0.47584035318549955,-0.03350951111250735,-0.14430198469926625,0.0796990043513349,-0.09719593517157078,-0.24166014864366514,-0.5264350008881697,-0.26373616989813087,0.07048836523853162,-0.040878958844052946,-0.5574746397218365,0.0690400642049895,-0.48934997619260145,-0.22173150247208168,-0.30096206049111013,-0.2977275596533098,-0.1620575881387799,-0.18459650997251822,-0.35316451768467255,0.11471907733774438,0.403621955309485,-0.27501706437273943,-0.1016997227504594,0.27259715927626105,-0.4584336523364909,-0.4813481743583732,-0.13663578504983256,-0.6339510341878714,-0.5261155999348268,-0.521461697489594,0.4229291382987735,-0.5376914274614432,-0.3728613592383308,-0.30465820093322127,0.1320037030341081,-0.507498485961327,0.22212433234436077,-0.3554910171727116,-0.2831815220695477,0.09938149849680629,-0.09919647815934973,-0.03467187642114694,0.10919016059106332,0.37691436063619005,0.07148186335759445,-0.4871072550187096,0.2997157057032788,0.0913811273590739,0.08857983965730987,-0.2994478958260134,0.12084101070191094,0.1649572487782584,-0.10426710596476191,-0.0009262245256720588,-0.29148301083970896,-0.36680168898666815,-0.22466106206917288,0.21199029423663038,-0.19261491999610103,0.0687151161777603,-0.16709625198989692,0.3925956154581478,-0.334028304478272,0.22050001428359364,0.308857528898061,-0.2382636212527193,-0.38689613949909085,0.37244669519800866,0.1981271326242339,-0.13415007779132782,0.16640723809361183,-0.24702420368823635,0.2607750367182043,0.2303376886647257,-0.24743269873765034,-0.05081435273772546,0.41096818159653264,-0.11119372114450635,-0.23464059559677744,-0.16589650662378452,0.28296009220231544,0.36476672707505065,0.43256570063828265,0.4892232334269618,-0.31945029320523965,0.4903622341724579,0.21930235229015252,0.2072340180727975,-0.05088406798238452,0.3825418973478306,0.3120429589214138,-0.2726849127408419,-0.3628677918563773,-0.34935337584062415,0.17767268501693814,-0.2843603924711248,0.19258380464570582,0.3233099487204013,-0.10775451986718768,-0.40470917557008534,0.3336180228053597,-0.22255794937943235,0.10219054408383013,-0.029538012371058443,-0.42327650717151727,0.5011422560716262,-0.07680901665660467,0.1859031623950184,-0.392043495014786,0.038332979856002224,0.27917635300665133,0.4149669787135529,-0.0007493462116373061,-0.03801058198814058,0.11063586641733755,0.06894089067920375,0.5902813189297934,0.2732570003230165,0.2813706794980012,-0.023436661366993333,0.004955187215099242,-0.030818040632198538,0.3368557340253401,-0.012694737484239504,-0.11030514567170221,0.11780994749581507,-0.05104999693007737,0.22250786404033437,0.48375253157897763,0.25289296369032765,0.21297862498070122,0.3400486268029311,-0.2669985504046074,0.5355492762252588,0.2698065173792829,-0.269415420384622,0.380244824059268,0.22711844522332786,0.3244288267202873,0.361915118861655,0.6427850690944197,0.25783028045072376,0.1699652934655743,-0.01171271405220157,-0.1511193716869431,0.20949128166592212,-0.065605878320069,0.15820757158896143,0.11646618082561719,0.006839641833602037,-0.04858851224257598,0.5200314791708586,0.28928711876660146,0.284784375563748,-0.375229056365628,0.3605736133386554,-0.27770508454439297,-0.15340067237256438,-0.15695492175342088,0.15733204918658364,-0.3019814462250533,-0.2589020563569813,0.17101740535212342,0.14211894360035482,0.5639970361030529,-0.10300875498960393,0.22879920589998812,0.6821904188940849,0.1004934269481169,0.6043551487933111,0.5059722221586951,0.38217401439102194,-0.05378821777222821,-0.16924706181889526,0.20587557403384882,0.11110514000973275,-0.2808803668483046,0.3911987806542385,0.5124860054355808,0.19720558810304176,-0.28176038498343936,-0.4667102418838409,0.3293359636844457,-0.05377655341452787,-0.46848302932624225,0.0069878064693483025,0.059766971677272726,0.06887729154817368,0.28234501227021674,0.3827274011182188,-0.3273281901813759,0.31710082479502966,-0.16589688690635884,-0.20830102731998565,0.4675233620087402,-0.06990851263381348,0.7274732463450447,0.5013076018434752,0.5923355673788898,0.19380236489875965,-0.10251805256177783,0.2954045205129578,-0.3500957917011506,-0.11589147342366835,0.035267655532289735,0.20900240562702965,0.15073698790577908,0.5872020213211945,-0.038135031100055075,0.33159177183518007,0.4263530872629845,-0.16721396828702173,0.12829476632202944,0.3172087654427237,0.08700805467055911,-0.12551036566287824,-0.17677328313633153,0.07209133133814455,0.5055953769436708,-0.35353269203668514,0.45003934173607607,0.3876639319237189,0.31456164693931155,0.13242913218228927,0.12426071346743385,0.3011904061916487,0.43467788699033194,0.3111349192553151,-0.01551310929177135,0.33735039693834534,0.08162314500000774,0.06620735810924558,0.26619958668139504,0.18324398357664004,0.1672790626973221,0.46042553555218146,0.3471502159303016,-0.14553413920449426,-0.38732969904062114,0.254710594672106,-0.19117028939501016,0.46788341201515804,0.3413252738426162,-0.21944529076149966,0.19242122137825057,0.2301636370410256,-0.16000594682950636,-0.03210175129511702,-0.23307515692169564,0.017306947059128573,0.5263759562620899,0.03806423258986412,0.43262622193740613,0.32361466653959425,0.44590351286914404,-0.1710684637080868,0.32665359483648426,0.41328002857229623,0.21517071585654854,0.24832387470485467,0.5941691841970446,0.5540571372993723,-0.040262323649049116,0.1506619275227988,-0.1622477433936478,0.18022876296057996,0.1333097035933346,-0.3304821440328643,0.4604265009097255,-0.04869745022834258,-0.04326194326582833,0.014697453287632984,-0.1912340757330859,0.40666384349783274,-0.27921790260374335,-0.13456981826128886,-0.18328588623415792,0.41305130751339575,0.013755529868569386,0.3938808433603041,0.5160368486729496,0.288102212802976,0.2861708251081315,0.4474898485414274,0.10022872274943681,0.5950745639894285,0.007125171134482279,-0.211687657399209,0.17773102333887839,0.1172942932156662,0.6143663287810635,-0.13519194735903603,0.05462084795248452,0.05439166915700855,0.44501687697977166,0.35222109365855675,0.42879986406420534,-0.277759265628124,-0.3958200374843246,0.46148225822816547,-0.37913764265094485,0.36667636304276136,0.3172824518507598,0.5246524171775312,0.024830652224481112,0.48253072206162073,0.10580706590554964,0.09314744858648584,0.17654145098944524,0.08086159508143963,0.08528010502221597,0.4969853702022803,0.4197449531239556,0.3033835812488428,0.21573103412521993,-0.08774690678785847,0.7504942291249038,0.6287813277871399,0.06531972732279284,-0.14514594138866846,-0.40813871900068466,0.37809670595154554,0.057322300445497236,0.2984229695814428,0.1649690386183518,0.4967350031632253,0.15432120735727214,0.508964155082455,0.22884814667639394,0.243484781339321,0.19019505242637808,0.18595262192829018,0.06717356994270117,0.47035001473283683,-0.28873341265086444,0.016404573691574987,0.36544842183843645,-0.28981783595261307,0.059886265051085866,-0.2825805399306883,0.586266737699624,0.743303499874167,0.13877944365847023,0.6130007542552581,0.5211160925053143,-0.3858630430966655,-0.0960464958598688,0.39281376825192754,0.38755911168752294,-0.12343971016237518,-0.4181957026679016,0.2900869528836736,-0.36916844560481943,0.18112789570034551,-0.20299189620874156,-0.04866766547483906,-0.4228242836301683,0.23394575248586924,-0.4453360698833317,-0.3590906899765977,-0.17775765832980714,-0.13187745521395727,-0.16315736883799836,0.5026680316456534,-0.275029746074919,0.30239018285885055,0.271811178545335,-0.2509891916857292,0.07290882382865017,0.05179601221193718,0.17265757461786396,-0.06364323210902904,0.019484801957147566,0.20969481731555747,0.07736264511740619,0.3121669137403109,0.49705470499086013,-0.0745747788574597,-0.2777520658775376,0.4959749886568648,-0.3822683247907939,0.16959678469721648,-0.32313911792099265,0.31747790545497884,0.09562114195432653,-0.04531223730210947,-0.2322035955014008,0.3630751237042018,-0.11609968971699088,-0.2327600947260833,0.15578182086421613,0.2968368972855701,-0.5485172836824896,-0.20556603221789813,0.18019791140318203,0.0495213165875719,-0.09768635018463606,0.5331153972609094,-0.06219968431771587,0.5148686777225773,0.21385026721794417,-0.08754455012255245,-0.19182267579185583,0.16182995110087775,-0.026049817545776472,-0.3291554836128395,0.0545764966530488,0.0807842032369179,-0.3689068088753948,0.3811921878588502,-0.4712656290015626,-0.5134840306853785,0.13517277786166582,-0.3338678847168838,0.08133467350079183,-0.3053634532591695,-0.12059287820670371,-0.42080631134156143,-0.47927483199482906,0.1734938398999473,0.30155537919607983,0.026959842606816102,0.3685142657229245,0.1884620793594436,-0.13973761368162907,0.35333638322260286,0.08876482292458188,-0.03772877673542754,-0.3638453328813357,0.3774817069478968,0.3340230618234635,0.41430105548988133,-0.2633442509491029,0.1473189305706929,0.0953417372213734,-0.4486454794034771,0.400793755142498,0.3468147306392415,0.39871735241467443,0.3355316458080258,0.03752456796278424,-0.3210584843679242,0.316701013433098,0.27407848397439794,-0.0036129607088566523,-0.15693224641179504,-0.44103299759878783,-0.49771979607097167,-0.4844200368098896,-0.47395102566529,0.14504565996361532,-0.01033469928738028,-0.4472202068119297,0.2631377428477908,0.33810130290618534,0.4822023160881495,0.2497973786099087,0.3632035965355723,0.12429729811766778,-0.21720714323667312,0.4479097621916266,0.1289989871008403,0.4480640637847715,-0.4362393520727319,-0.4136607687653848,-0.2148260792744623,0.00837620577980275,-0.2258314209846854,0.1256648794508328,0.35688331164022424,-0.00014645522063148173,-0.4417223751560636,-0.15811900433821863,0.0012500933317654318,-0.2991085956416163,-0.4827078534339394,-0.1470248672398051,-0.10223879168804204,0.3767051055254038,0.20211120120414913,-0.2122654606681762,-0.47745657327708735,0.2502741525697541,0.08634597204583325,0.30935167782858664,-0.08318005857873718,0.4531688804386752,0.2849226427421284,-0.1108465194670391,-0.2870635865913606
1,0.2342306748534853,0.265876734391504,-0.1104311875815063,-0.2733752054031996,0.4899245305587901,-0.1957149639812084,-0.3758722242187428,-0.4300342422225197,0.025095846353533,-0.0569563543002178,-0.0674147981638515,0.3555840348305302,-0.0298148749818528,-0.0051424791237878,0.3012304423350583,0.154300480147559,0.2439943485679587,-0.427458408928701,-0.3995866461836725,0.1158913994186071,-0.0463080586268402,0.3755882561129927,-0.1278491948911566,0.0886577492332646,0.0958969481434826,0.0668452196031026,0.4801757519876355,0.0712009383952745,-0.3868756384453097,0.1337231053902872,-0.0458296724915141,0.1035934860297537,-0.1216771899532419,-0.306161311774227,-0.3821109097479129,-0.08185601304833161,0.15074589054975654,-0.49230658901461516,0.31975285494345784,0.02525965393249283,0.2213953918695245,0.4822537190094487,-0.22654080172322874,0.3667801811389545,0.16928129270884795,0.4173733609344294,0.12384411085572815,-0.1213537763979958,-0.1809119080378712,0.3143116333362838,0.05032614096575533,-0.24386175060848944,0.4308293741057782,0.4702420125319533,0.4860311686836025,-0.482857739105917,-0.2689115657116794,-0.2087940240749853,0.3953172682768635,0.1020153964847733,-0.3645892173013509,-0.0393704776318655,0.204366089666836,-0.38223103130456193,-0.0477516020332655,-0.19821461860106868,-0.21577158849920688,0.1946724725415976,0.12984138585454258,-0.22326462272724495,-0.4555596811411647,0.14412777480887645,-0.23388037116618118,0.07770138028213554,-0.3819315756430619,0.12419523919783042,0.12391237307648702,0.3333918617488907,0.25041677620940883,0.26064026033651894,0.0906341317386649,0.2122880247455142,-0.3674323051301417,0.0396447632470488,0.0498004770072032,-0.2764770883428197,-0.03180721037809116,0.03830877652893458,-0.41422380379681617,-0.1835723468979595,-0.3196547704778516,0.11698159203547474,-0.15967249610933731,0.0423810936425245,0.3464227701535402,-0.020761811177045456,-0.14813764127742135,0.08600691302058147,0.17184579217916354,0.03435006453671016,0.5136293956913413,-0.33428187811504256,-0.29629648779661916,-0.22364453809562468,-0.08785808545920665,0.07142014820822809,0.32811946009037507,-0.08729667120567348,-0.3928457372215571,-0.2254970537005179,0.0655647573814673,0.1596113339780236,-0.1020662837445208,-0.36088824047748785,0.4410491958408042,0.42693151871504303,-0.2395038048138373,0.29570237891598644,-0.02904347651147988,0.0027375152373226115,-0.3861239803877601,-0.17045310221628196,-0.17527681064811737,-0.20393673106407487,-0.4136175764926968,0.4058597451874773,-0.33960892056327385,0.31322549003599987,-0.10237280941732614,-0.08827142581543994,0.36337763201882867,-0.23074849500602332,-0.15706031147283359,-0.18012429614966402,0.41528285538696225,-0.4144208350408962,0.25230334863345627,0.11476567611932952,0.21825278272295295,0.22411327259043837,-0.3444360546043976,-0.0607289922636653,0.0949710423654788,-0.16037955741198692,0.4666325536211747,0.04713981316744468,0.18053564403429329,-0.44029347002277436,-0.3962188637097516,0.38914447396861196,-0.42657932335713244,-0.09424019999744743,0.1266285416367582,-0.03321170530903737,-0.08253404372180063,-0.21863835807661886,-0.33437434988901754,0.38137050124742283,0.3802143160947688,-0.19297511385053143,-0.42495052324817045,-0.22952235764199233,-0.2853210860988409,0.01226122718054419,0.3302559212553732,0.4475082519099646,0.31568682640634377,-0.142324561787895,-0.124240964486357,-0.0006661100466011,0.37495652517558303,-0.22865082429314856,-0.3798446648593059,0.2322918351393533,0.42616385643518284,-0.2843476099627058,0.5424078958183904,0.17531414253632607,-0.12941248709196948,-0.232066581272281,0.21502700971541366,-0.07816423330443797,0.2536405524927518,-0.4370603613419895,0.03287458010599474,0.22778957296310962,-0.20396321686306917,0.011488837826247846,-0.3941316264502915,0.1566824845156487,0.0687166473533778,0.12752003572629564,-0.2763089268192521,-0.06346020734701943,0.1333234750004914,0.3008770177840566,0.0713987905034961,0.2578471743270141,-0.36178364413417863,0.051054366109599895,-0.3111864277690001,0.274275990952363,-0.3269889407922109,0.21306135258593228,-0.13246754601805172,0.4064875308095185,0.2251275435534612,-0.34769970860860444,0.1306988562041244,0.19772855634428968,0.08147528263968844,-0.11154270188975474,0.3082002434832362,-0.23173562349186078,0.13481569147267722,-0.11924871332905518,0.05440767335519749,0.0807912338512885,0.3249324052233995,-0.214365425647612,0.03931469004925113,0.3103061875839509,0.05096195317283104,0.31734056426492463,-0.2670321447084202,0.31040166602764424,0.08114386580031721,0.2952207103965692,0.3653160735048805,0.20895474140217543,-0.4466555674415711,-0.419809416679975,-0.4114933566950725,0.31047920442309646,0.008926122021978991,-0.23263420056251322,-0.4526320188793579,-0.2567743753325221,0.12093505104709436,-0.1514058205742799,-0.3580657869268565,0.47640222647515446,-0.4324608529116805,-0.32327208582299427,-0.4162634843769647,-0.04949658504038088,0.19186910233507284,-0.45928171854769145,-0.17285043294046235,-0.072994352139602,0.20985552210368594,0.2985615803936515,0.0951726136175144,0.08210205898322463,0.38951971987002004,0.023713077915625456,0.28256924112528087,-0.5208964201304056,0.2401106752960569,-0.26816768164193,-0.05004344439791412,0.214774954073997,-0.5186748305185237,-0.18201890040945826,-0.4217461521996103,-0.2451308331844819,-0.41393000358738624,-0.3475429272645851,-0.15964123505687117,0.5192605568953446,-0.11273245094001276,0.17322791753656017,-0.4635457471665062,-0.24784960633061248,0.20381818106924313,-0.16355090121030216,0.30420014096211084,-0.3355830648680842,0.3578954569629417,-0.10123954513806317,0.1646549076858263,0.15006385944348113,-0.16766803283081144,0.48365627466124356,0.17254664950994875,0.2766360078565602,-0.04912374505528207,-0.48797993135842666,-0.4956185287910859,-0.45434729115733885,-0.2198560457190165,-0.6179896069263292,-0.18224136052746776,-0.13673862393813196,0.41819011720693183,0.02473175675625895,0.20538391039890586,-0.21251657708932545,0.039436007919233046,-0.47222415769583537,-0.15223545116325232,0.4332836305468475,0.19975359288694602,-0.3183246341873082,0.1823203637548985,-0.14791859627859624,-0.3200255875167704,-0.13698311684527975,-0.2824011622795719,-0.30462926567741416,-0.4393008705063819,-0.39335886881679044,0.4771902114212661,0.04072827132494463,-0.5067356876357074,-0.04300349681922314,-0.3286583393996459,-0.02053600168560766,0.0537738734790839,0.3476977240171572,-0.13305217150888451,0.06723654790106767,0.33722230810065795,0.40449846094609404,0.2385394782936362,0.4581641030057928,0.010109077704749446,0.23557331913114657,0.5234855155152093,-0.35943006928283905,-0.40768263578167535,-0.27118975152672714,0.5401580348145041,0.23747890576366412,-0.3675544287227001,0.1987537057468912,-0.343811794216241,-0.2587791789303069,0.23820436622872543,-0.45681557683077895,0.2864597204429436,0.32815476546100664,-0.5070182676660464,0.13366816645752785,0.3724266680664199,-0.14106413224815162,-0.23300230718333154,-0.09567792212471109,0.12641252872638092,0.07072524428824235,-0.06360116109781166,0.5321798806184845,0.03950545141482458,0.10605737194210137,-0.26300700766870067,0.1316843729708747,0.4781656435256268,0.39412053565179517,-0.21529994931697866,-0.3602656584755687,-0.13237972843093396,-0.42175635804953426,-0.4551631229097504,-0.3738928287655901,-0.1991937348495266,-0.03154045497228768,-0.4836467865964722,0.1799834698565617,0.3104108174111895,0.33753495343480683,0.4347614238065209,-0.41207289859483104,0.06923855377585277,0.5695761827873581,-0.30950840914633776,-0.12589626458758607,0.5330593017337832,-0.023083955574376244,-0.2294397151734269,0.2580495797122927,-0.3051710691654732,-0.1054888505344745,-0.09117769323092383,-0.24724767799231495,0.40385125787371884,0.29073019864205796,0.4540059519934958,0.42844469589999873,0.4699488380583612,0.18301388911844504,-0.27682148432752046,-0.10374524727482276,-0.3492777137683414,-0.24467292778572125,-0.28742383942581784,-0.3016213536783055,-0.26906328867224405,-0.05779503072646542,0.2658914874467663,-0.10837608348513167,0.45018042079590287,-0.2024029217878906,0.18339371619755682,-0.2897758690994739,-0.2093764744121082,0.21457302215038893,0.08225151127000362,-0.26616705868355417,-0.07455678960390895,0.3500129055944256,0.15021285688266653,-0.37336400809478215,0.033589463695956105,-0.3932695214699282,-0.36295025608315046,-0.04995142054177156,-0.4795713189206264,0.12476288402903721,0.2472475574213952,-0.03575114740414614,0.3197456650184699,-0.4017929378779524,0.36646171707221936,0.05472697838972072,0.47598340543564793,0.4246805859458211,-0.08045350879236846,-0.34818256615262094,0.3800395816820305,-0.19771235732394035,0.1338241743582883,0.04921016551476811,0.3807799662845268,0.29424519843001723,-0.4556966637158536,-0.3772215154987983,-0.03868107553642715,0.015566855485200053,0.17797748789260942,0.28267185123027594,0.32795770392681195,0.13849643324062214,0.021208908578684706,0.2001953544991817,-0.2420361825149075,0.24149250384434237,0.39990696526202485,0.4290186664601883,0.0592512539670785,-0.06923418557494934,0.472187741509579,0.37583497753496176,0.4825241958948148,-0.3852780564857329,0.40668149350686894,0.14200811835836782,-0.3831766601995592,0.19135645906129356,0.4648617811549195,-0.22046666212602367,-0.16933266779082243,-0.12280070450998631,0.03737234626475158,-0.20121529283098916,-0.21188915938002323,-0.3901670634659721,-0.2682209878575412,-0.43136047427929325,-0.2900860194716357,0.28590131602214014,0.06818537687319881,-0.26821280898856537,0.482854808693389,0.267661869600415,-0.09496689637541085,0.396480219319265,0.3024465591512281,0.46012491010447765,-0.34521786549025846,0.27074178460381537,-0.43569101829465556,-0.39075547354474033,-0.3338716795220087,-0.13391065174352887,-0.39652658512761585,-0.04856593402648691,-0.5254174755424479,-0.18762810549562128,0.3046626299986111,0.3233531572450912,-0.15829783750859786,-0.3560023593789675,-0.30539279601692115,0.20080180222407884,0.15064780238322412,0.14997184709493902,-0.2504566225450619,0.04879633273818778,-0.42722100953589626,0.1407210541349584,0.07298615292475986,-0.28444125604555587,-0.40249205827727635,0.2714095370015537,-0.13232426464338426,-0.2482204376815842,0.12978366110426892,0.42124657837073537,-0.2945492764963621,-0.43839268265936476,0.4843118450753554,0.0347998007104939,0.01527134504575448,0.24228196085148823,-0.30273656292414663,0.14581541398766049,0.01600927170363633,0.22902758269102397,0.028003679406033495,0.12479518839563153,0.04860321398229786,-0.5035987455017997,-0.08583433513131009,0.13111609333233978,0.07342295593684996,-0.2164486474147898,0.030249922883546564,-0.20695691649552847,0.49958213439653776,0.46013739781274327,-0.1373613121508642,-0.4379345423239507,0.2504821289594917,0.2990322910813796,-0.13401477503224127,0.34122003369001597,-0.18283208156356492,-0.24867423432457594,-0.24505867640386514,-0.26451095419872234,-0.03191304699874025,0.030821570785627198,0.27929680673902085,0.18883678035638596,-0.126282705557983,-0.20498307026342602,-0.04843968257634023,-0.5410630087632999,-0.4547795978260243,-0.035510967660825905,-0.4168549957011965,-0.14530919665922173,0.31995280630148043,-0.35067164871140893,0.3283136073793009,0.3760224803755037,0.37409139004345987,0.09036342807604344,-0.09887761069461658,-0.12735688341241175,-0.215157021883641,0.4292515719574029,-0.18292836281401137,0.24846433657366868,-0.13177480238810874,-0.500950062362479,-0.1809644574025061,-0.1050410777827838,0.4046476049052936,0.25641811838821266,-0.030916409673605802,-0.26014806345759783,0.1673149151728705,0.10914419579391609,-0.3876914466403133,-0.33449501123671177,-0.35837953593665733,-0.23496790945412765,-0.20560299258158263,0.20392489493678054,-0.28460465023072357,-0.4969496855924501,-0.3279412866937711,0.39441838080341657,0.4758038613114397,0.2555204134233528,0.18536751232186055,0.16941454265107614,0.2875966212926408,0.41106892755708585,-0.1434496618654196,0.09900521401596647,0.4756598381321871,-0.1670296325134569,-0.04977969664969417,0.04917333568895749,0.05514963283955579,-0.1231459134083801,-0.16012102573513798,0.5941192151555023,0.5299222350445765,0.38837251213756835,0.2122600741568924,-0.026390665115713266,-0.2273889474705099,0.053354531901597085,-0.40037073990043015,0.15290637483963065,0.2850810637841405,-0.3064307284037925,-0.009579473419289943,0.013169402723035897,-0.1422064398003326,0.16081939666541872,0.38725733098977283,0.4730223443270884,-0.07990166455387766,-0.15233830158065803,0.27982756567406225,-0.1321407993135884,-0.18529356447854284,0.2547913868649897,0.40370155775235733,0.3358776880426207,-0.43567423640130315,0.10791622496100156,-0.43167125742056245,0.5238476091661511,-0.12151935778815287,-0.3243285177609476,0.2095909209327987,0.11396357696639994,-0.19981006774783253,-0.06396461024328802,-0.3188769208894534,0.05674011759083437,-0.2981767957394492,-0.43641429327156167,-0.2542378924880654,-0.2960574585855902,0.481407446858058,-0.3434892741755624,-0.36749945792201527,0.4338671910236459,-0.3476909392036679,-0.3632767014336718,0.4893028473266217,0.30579087760270374,-0.23620136196753225,-0.39916374144830347,-0.3983081736759099,-0.0875547527386164,-0.35088438782254033,0.16387885227848858,0.5109794993400992,-0.11668718068108608,0.36064561990627064,0.5399787579743801,-0.10348263385706101,0.17906771136616764,-0.4369914932601563,-0.2590026521855633,-0.3413768817085716,0.28074294610175643,0.4469041926371268,0.09797346524299995,-0.44820928520931164,0.40607536332854943,0.11990507892088942,0.13734260307826418,-0.445626473822852,-0.4790025187092142,0.1210675562567137,0.2808934227204623,-0.0011827648155113,-0.4814067506377388,-0.18051995782279243,-0.4574171293423516,0.08897370721652426,-0.13086661848761194,-0.45913231253148334,0.3690380504112275,0.0066353473413454465,0.46830297476577354,0.4962561363943461,0.2080213058449576,0.0672624149262967,0.0298142091613607,0.2630385357976097,-0.2538120635053121,-0.12716921203115092,-0.31412296043136795,0.14841578037056,-0.39027683630254967,-0.06598671554284659,-0.24745058857563437,0.24263857514006393,0.010735209064551714,-0.2399888229649814,-0.2152237189252107,-0.2167139320780018,-0.1149333807509846,0.0915863032219186,0.4756219144716566,0.02138765701855805,0.44570417003918156,-0.3649336471951363,-0.4375253549352645,-0.10623000460305808,0.2870980448925886,-0.44978987872687926,0.01939072848122558,0.48191893152663384,0.21852850311327962,0.08526965077833719,0.46706049128591254,0.11019179888010672,-0.1438952827868079,-0.3039641835873268,-0.13631335105932094,-0.17653357283600962,-0.2076013887727519,-0.33663777189257316,0.25962098343188145,0.2262445922544386,-0.0873170632506052,-0.184100852703029,0.0722398429050674,-0.0331533729600168,0.2338889024567702,-0.3735943748247043,-0.2340927446290215,-0.2795895300415386,-0.4573914701950222,-0.2542412822422189,0.46483310650508597,0.33091360940997105,-0.2542475371530689,0.009524240221832571,0.18871865076260347,0.129966220732424,-0.256852299190714,0.4047785726806482,0.48210650230631674,-0.37037682657293625,0.4944137504592433,0.05756550393619833,-0.23345640052498276,0.2567629143490422,0.4001305651419234,0.20455676156451225,-0.16567713747716795,-0.2428678804894943,-0.170195473870484,0.1333060900052025,0.0011023612693595,-0.3030771898486436,-0.1835442292142275,-0.0627285573756387,-0.3697155764757656,0.4544851710148744,-0.20377988298207547,0.18396963848404047,0.27491051393942584,-0.4839583844239094,-0.46769131033446726,0.28190110274929403,0.3796214159703984,-0.4604847216397268,0.016334228597263648,-0.08508819206836281,0.4557706066725282,0.3045225410275225,-0.38920578759443125,-0.38964063993368603,0.1011903963920744,-0.1659935735982544,-0.1568791258447586,-0.2415472166874183,0.2013355610099347,0.069484584501256,-0.0358799169937229,-0.3569841076507459,-0.208156149086489
2,0.1598093396108104,-0.1548448647690307,-0.4305660644213036,0.1532147877613956,-0.455652167489763,-0.040166814685031,0.314233973815418,0.2502099735484863,-0.0814375078524296,0.0152541060038832,0.4601110230681956,0.45015912659001,0.10233423437560367,0.44986737593049214,0.413439255354733,-0.22458733839903489,0.4510536045775931,-0.1742857271219982,-0.3512665499228345,-0.4232871081840048,-0.2993392028220921,0.1849698185954675,-0.1739117153394773,0.4861638964332643,-0.2404389277722017,-0.4572998742043125,0.3985077394898618,-0.0322218958945569,-0.3436252808419022,0.3701928533719559,0.147452587941626,0.1609249809666092,-0.2393726042524528,0.37221179592749437,0.03222317041836315,0.3170390618657402,-0.1257250837947787,0.021853760203214896,0.28840572568084755,-0.17952511309801378,-0.14478881555169232,-0.27831793233599594,-0.48223347626081087,-0.03271239341929301,-0.05336575034375952,0.004903196919110485,0.18614944170239373,-0.44031109952155195,0.2099254419914433,0.3451497544058331,0.09744092958071673,0.4911109119327545,-0.0412427676687601,-0.3873777004211768,0.1489055765270633,0.2923299213432976,0.1762886391234057,-0.4566788628457238,0.4085383846933967,0.12269513634920985,0.14540554496265076,0.11319826899378943,0.10551465517493301,-0.46070004345475707,-0.4200140920821432,0.22685869532998684,-0.14240572128616683,0.10266095747649483,-0.021900645405086325,0.09807661853458886,0.4141300076835436,-0.030030526707563503,0.09554658776007043,-0.2036574753602156,0.3228664330242557,0.07338661813340833,-0.14812974863807665,-0.26304545204248175,-0.03960565816674174,-0.1741026487119452,-0.45166255877957345,0.47828413102497513,0.4235516625047517,-0.2011524264714977,0.3938899242355721,0.2628522469722393,0.15636640026229476,0.17151992374001387,-0.40192127421890794,0.1920913268168417,0.06379311482180709,0.08831097445687137,-0.30077332374622634,-0.29236738194952117,0.3251156453326561,-0.5058039808711251,0.26606441514399076,-0.08675344475079291,-0.30705530734480047,0.005128631521648389,-0.07746660822045677,0.22893467958678418,0.5422548053519919,-0.06864740737120441,0.09730879643643908,0.3852429014520065,-0.30750059872025665,-0.004708582754100576,0.25800694400953056,0.3759724129131488,0.4179161304558291,-0.4217798768117107,0.2499844981027795,-0.3084787631508826,-0.28702549216383005,-0.09789609826182333,-0.33156217373800667,0.06956602274009208,0.013468253783250521,0.08432710068960442,-0.1729787245143171,0.3814672651192311,0.17263089248140795,0.2155392356020158,-0.3914630664031601,-0.2670179827605668,0.0977901302742188,-0.4187329587434253,-0.3377034705587414,0.1564246997579595,-0.16098971493811787,-0.12673356835621935,0.2923289200907071,-0.07837373893476815,0.3429470658347414,-0.0851839038969999,0.0022314360730501465,0.15881166739521224,0.0028218574246622456,0.4121822170961925,0.3308044782132744,-0.2883266443766538,0.31732007511548155,-0.012381539376756167,-0.1605017280094356,-0.08225530277996004,-0.4344556805669641,-0.18823936240558276,-0.008636899291415985,-0.5659900590260029,-0.16159749538580997,-0.03162233622421335,-0.3205721800506644,-0.4499676060212672,0.0964396241283377,-0.3855732068623708,-0.2657912695757931,0.10617904332836811,-0.16757512281839562,0.18208631317125012,-0.2890407138967708,0.36645494199758255,0.06315114294307875,0.380137336334728,0.15284814385221726,-0.1593710684369628,0.12805845917828848,-0.003143523028892751,0.3727876505586927,-0.1371905378744617,-0.18156817152627508,-0.1714285368444483,-0.4076290540343138,-0.3558460735449316,-0.20894291663495448,0.1141032188632648,0.2526527549752681,-0.3122946866442997,0.19395784105999941,0.35846182153830947,-0.6181882309976888,-0.4834663144047484,0.04009884956231125,-0.16988420966608725,-0.23617135400978992,0.3638161313271747,-0.2850656738234136,0.20210582218257897,0.22750743987965977,0.2370497198318819,-0.5327215755966533,-0.39303224355489197,0.4219334894784718,-0.19409778642487516,-0.4594257284474263,-0.21025226119957238,0.059635913939333,-0.04768671561813401,0.17031494375745027,-0.4401538438403608,0.37408771646350514,0.20424559988203328,-0.38594849570336054,0.2851929671518686,0.3384193494490534,-0.36162545470020685,-0.3393295987569269,-0.07765036584610333,-0.26477712813149434,-0.5010347923416485,-0.18531105241393672,-0.04369976814322251,-0.024326098975464002,0.41917838466851015,0.2791045448542911,-0.1007600553622785,-0.31891638494676433,-0.35598912085867346,-0.623032078001112,0.28041301198840907,0.3958452720261231,0.12419654144975056,-0.3821026523656625,0.022010364924578363,-0.0769909339466855,-0.21981492801247218,-0.3347696799563951,0.3310651619877027,0.06693241527954633,0.30294628594882705,-0.4819093933561626,0.04448892584927819,-0.48378713038832344,0.2009296702366329,-0.37665727411201766,-0.05828973320255415,-0.469530840583541,-0.5393635422684357,0.2937731756523372,-0.24905918313415445,-0.30492730134764906,-0.27980831556050484,-0.31698354227505726,-0.31166808294764115,-0.565444524800707,-0.3883626250064284,-0.6357140277522546,-0.5653997234782214,-0.2523103547971465,-0.0003610897584484781,-0.3780651429257976,-0.22844637820066507,-0.22207420846832873,-0.18163290249468667,0.47053589207301105,-0.3001970820893314,-0.031514159776943024,0.04337540630393481,0.2547864954684378,0.09989393770967069,-0.1683233605676624,0.22917094906574223,-0.3129085369594516,0.20692320881362855,-0.4593970655330452,-0.07558497956481852,-0.21730525500712938,-0.003513990426884192,-0.4176469530048773,-0.24544967152824326,0.09520143343098617,-0.1931726136429378,-0.36859329857340817,0.23622781551522679,-0.5615836026521269,-0.4174819092489984,0.4541068466691771,-0.3630365032433435,0.10521459211502965,0.08204429219425273,-0.42480181771277664,-0.38692581475171856,-0.13127146171617687,-0.3739992936831825,-0.34300212388452195,-0.25544080229608646,0.1270303719845425,0.3123145038083634,0.6352287673170472,0.3204373297819177,0.413689079674581,-0.2284575025091845,0.3334964146841706,-0.3603895228121996,0.28032838318323533,-0.47502985832722733,0.3087506325959693,-0.2243563055469733,0.2792570070944358,0.30053791639623745,0.3057134468732713,0.41024182147468696,0.2627977333887459,0.3094195418871813,-0.20660235632224638,0.20877237936433038,0.03090901446165639,0.05190704160928468,-0.1307242659391391,-0.4081916757169907,-0.38590980270846775,-0.3727651254021385,0.15996806575650285,-0.019270821678553127,0.19431933216779268,-0.22958266834292226,-0.04861076137622368,0.5774840690545582,0.34964757035970845,0.06674614372332216,0.5712058953074548,0.1646843126227361,0.09547318661763707,0.23033686853567134,-0.07304136955089925,0.359868813682631,0.3381165499959508,-0.22463390087717974,0.034971174954430424,-0.19675886720030605,0.5903470701059087,0.623848218942618,0.4067892864795028,0.42795181802269566,-0.46342697822152357,-0.13648910328567435,0.00870402357448947,-0.22021910347132614,0.27467577981699987,0.47244463810574056,-0.38490884366309863,-0.09846758972709811,-0.20554955447833742,0.11788316573852459,0.004645607250477906,-0.22416461728612705,-0.2280128467694212,-0.2179640463753778,0.5100558707600501,0.3891574493964434,0.23449348334222253,-0.35924947528657336,0.23015295414575382,0.02271916971660112,-0.255581111660577,0.5686085188538003,-0.057286167224524856,0.6442941856514866,0.0846645582308646,0.19377650857882137,-0.19898253535923105,-0.10140153165328658,-0.060201574089558306,0.2936703356876251,0.04064400359400749,0.28132096803962836,-0.028053067088796745,-0.2479504908203674,0.10766785070589248,0.5949685281375523,-0.01597148855026164,0.38462220504603484,0.38342167133183847,-0.01915795703632645,-0.36747027079731703,0.08749024760570599,0.4018003900770006,-0.04369167270747038,-0.027743913815307417,-0.08600104017417061,0.25263809829798006,0.31712989394097707,0.1331124758840537,0.39793868459978343,-0.18003522302720104,0.4617330848806046,0.5431426990807454,0.25228989653186357,-0.3458353535055445,0.07312462060578137,0.3943539029930027,0.13895810996918098,-0.2753659860981417,-0.031170623350105113,0.352759712322869,-0.47790454770136565,0.21412124669575566,-0.3686171304457387,0.3178550787684093,0.02041014613204941,0.39787150066747484,0.056872210839723276,0.12677682462240109,-0.03927719181063128,-0.004055101910922849,0.17828284846333525,0.12250556354441142,0.16230287047957936,0.3826411592301878,-0.33339759319693996,0.2501109470229394,0.4676057285927702,-0.3316650957526364,0.07171641892170298,0.06717935547829398,0.3069782391895337,0.46483236944526923,-0.41610936318280195,-0.44369722817503493,0.042472222083231925,0.1737469946740889,-0.3879757696186024,-0.3122109594220649,-0.3656515753837035,0.289293929369586,-0.20784472194706494,0.43872470918025724,0.223454756448861,0.07299945663515015,-0.017152649709619484,-0.11814766770906435,0.4153184205076206,0.567791222812751,0.28727407787076115,0.30800972326522985,-0.2574068102285408,0.058018135841694254,0.41719455622117896,0.2087643671981694,0.34954574698789453,-0.22831529322069147,-0.27223369159811645,0.4838229801131645,-0.05981121771073189,0.2810636524358707,-0.19180821472445822,0.37962010908808186,0.3144193584494253,-0.02518338207917527,-0.3662929635017131,-0.33959037931730046,0.24069168295319968,-0.1835304672617942,-0.18375908637942037,0.29505108851596473,-0.16810115715447754,-0.16149534416577901,0.5155026102097247,-0.18971348393620438,0.4435324578671374,0.018787774372745196,0.013650729302205926,0.6947699257388846,-0.00942595457000633,0.4566678134301951,-0.2854553893588634,-0.0077788829753406025,0.08957748805263462,0.41925462008704184,-0.189748646554726,-0.524361489234966,0.43737269564798087,0.1319460414493963,-0.39003653091091983,-0.3740508251351296,-0.21150676711091948,-0.4654331718447939,-0.10426588413924737,0.30602038335903803,0.041195306767540324,0.22359796612076988,0.13035999285291525,0.0016851031286434198,0.05512573393745496,-0.1998495153153194,0.4467458597127287,0.2693338149287621,0.010471984122280219,0.5196949422785916,0.4091569590895329,0.19726100434492,-0.25474734177373,0.39587598746232167,-0.10178231948439581,-0.24221711724097075,0.4585407841777316,-0.15328407064390265,-0.2734476052042672,-0.35669440356506915,0.15509712346129484,-0.163269316948963,-0.35892401281851877,-0.3937013390207016,-0.5011417656391247,0.45830474927652265,-0.431444116272718,-0.46000173346833434,-0.33082600390243416,-0.6396024094800019,-0.4531138497191827,-0.5972805590477148,0.09210713321616681,-0.342764573972806,0.19815930957365302,0.17024279315761037,-0.06992237437880384,0.5071614405773986,0.22212447977198121,0.07533132764538662,0.17191261787434683,-0.2460105061319474,0.009666819842219634,0.17653628664562604,-0.192242103092054,-0.03218650740659724,0.2417975092200199,-0.06367037236212736,-0.11041625828303946,-0.17313670526813546,-0.411286467237677,0.27953033187470705,-0.1627307051238102,-0.030821499880550284,0.07766993281841414,-0.463127287141283,0.3230152010962267,-0.3345876871482549,0.07289969837532194,0.20478573328262556,-0.12127224157669554,0.2657750389567771,-0.19365540842511533,0.29152898987690473,0.05150449941612268,0.21777871002114751,-0.1689990505681769,-0.3049045307042512,0.18490768511926922,0.024584760060784604,0.3531127733742269,0.16702089294477918,0.3451509493387827,-0.1232773756219468,0.33597386828353754,-0.4808067012486359,-0.12911088356068312,-0.28443082772581285,0.3008373662136924,0.14359912954072152,0.4234747378404936,0.2848104527904248,-0.1344015136612015,-0.03000846235236924,-0.4764112059833808,-0.5637365199843719,-0.5662981488616492,-0.15099396117089342,-0.3435946341744781,-0.4887931682512527,0.2734730272774239,0.17285629790235016,-0.12400550226667889,-0.07890477123408673,-0.16526929892647962,-0.04014383292545361,0.027600449223033847,-0.28799621668019887,0.3479174106732623,0.1597944826441487,-0.04796702473942612,0.211025605811755,-0.2225783486914739,-0.45801016319027665,-0.3830525534822474,0.17598087290970707,-0.07226598877821311,-0.3561598588283874,-0.13830889496250084,-0.26695634795701634,0.35386333820337185,-0.40964072906669385,0.17455325889957282,-0.15215252959350015,-0.33861931940033635,-0.4020690493098295,0.052070672973314795,-0.12921460699326334,0.1672902240183567,-0.26181876942942506,0.5593817996072741,-0.342651665119974,0.24032358599649678,0.3749857388868517,-0.22711233285143476,-0.3449434816754628,0.08470978967833163,0.04304593840934873,0.15629383469402405,-0.5072231359142599,0.36631562743700186,-0.022783501167409806,0.2476703626638134,-0.20107949758003657,0.400908700982389,-0.30874262339237063,-0.20423969383105162,0.26195260027714695,0.38414251714794423,0.1231516772007936,-0.24028400012615456,-0.026268365967469377,0.27051233353463194,0.22148636334060096,-0.01960260770302962,0.27927847977605136,0.10660657216916393,0.2882505919158173,-0.24320060223337014,0.1544516207529807,0.1635140084041791,0.17001287308470894,0.03802556933749717,-0.39170367258294275,0.09196163621667806,0.44327128980808883,-0.22260356913077026,-0.037547125140248626,0.004245442169889233,-0.4786695460204865,-0.37865717983154773,0.42226276642927396,-0.2873064416803666,-0.19895652032826994,-0.29215236692823116,-0.4050846240909879,0.0961813435266404,0.48832934349199963,-0.21117397367859422,0.34086851169693,-0.28521085814041985,-0.09795915319439912,-0.17696820394966573,-0.32046497639625515,-0.30513903112948076,-0.14832687072279532,0.004018394024500796,0.23651089426947988,-0.035860843146811976,-0.23050255745595893,0.022608911977800857,0.3359562012778037,0.012883053307385903,-0.345266990108087,0.3651312908246968,0.5179277138809031,-0.2639868697402209,0.15923898540035972,0.08568520763751775,-0.1814923627418401,-0.3381374238448317,-0.4218380152104547,0.3167097855806724,-0.3004946988799138,-0.202216501781317,0.28920436406782796,-0.3165010206571375,-0.09866826317654956,-0.31930708422716064,-0.046370415351842977,-0.5523150972197256,0.06745228711904647,-0.38903733076169167,0.05895477432424154,0.17130862892073878,-0.08703187631017331,0.21764128269670682,-0.33009933825473425,-0.04153792811010228,-0.47615380701518906,0.30498814938038515,0.03336963460806157,0.23622160832015993,-0.10536431516293504,-0.3402686155775531,-0.0509894217961774,0.07041362196152003,-0.011699258830610366,-0.10812559705446047,-0.44215238285466146,-0.490549870995622,-0.0584504427035471,0.1393857300269809,-0.3064260622356662,0.09608263299428395,-0.1475945997207469,-0.022402708301359178,0.2816097048732708,0.04548004001363073,-0.1989660745100979,-0.30438811670044413,0.01951584022637366,-0.45885068047482336,0.08836884313808997,-0.11614818735468595,0.07957011293568314,0.09367549446642225,0.34076137636847864,-0.14995387994696419,0.282637333229904,-0.23870594142287196,-0.3711806198605285,-0.47394411473022624,-0.16103213953099338,0.32369326722505654,0.47456692838724296,-0.2093791055003917,0.22850232987990154,-0.2973840523193306,-0.0797505312341805,-0.0913902530838294,0.1278954643241544,-0.25332370498196394,-0.22514601429678024,0.4984713152520062,0.29703290758158296,-0.045164408383993444,0.07148294750028018,0.36546414850488956,-0.27052361467885216,0.4037133191430683,-0.034168854372738484,0.43676601948344956,0.2874985836561822,-0.003083303103544727,-0.15155636102316977,0.15194590876810388,0.09041939268576196,-0.2786469523448864,0.2839179698951364,-0.14647609958118915,-0.25144692227205995,0.0014580335548933802,0.4329953914833999,-0.2673459996758326,-0.032698447869552,-0.0624413413322194,0.4754734989543808,0.450157200636711,0.0374416010287812,-0.4620127008494619,-0.3985873690262367,-0.054314219357246084,-0.10743119323976943,-0.35596626802774267,0.0537515037058568,0.18523103357049514,0.25915601245817754,0.4969014113895956,0.08351735299322413,0.22432106123716697,0.18660650918572388,0.4012144562099888,0.3334597053996539,-0.43498130134706803,0.09296096556796332,0.4055290770472542,-0.46956972633477767,-0.08884335987462873,-0.19879330719340732,-0.4946218953636911,0.4196318450217797,-0.1073081048728832,0.1518281666342561,0.2341165665783441
3,-0.2867380815423338,-0.1138696889908477,-0.0817968487093694,-0.3297752371300466,0.3730887881917571,-0.4198322841294283,-0.384630169957609,-0.456002057439508,0.4621565132118829,-0.0186918759886954,-0.491122849830525,-0.330517750208868,-0.4445470016025599,0.4842869219327613,0.2937934097379849,-0.1779737193987496,0.4854215736588423,0.1548348177354271,-0.3493465936533031,-0.4372552695239194,-0.226404322679279,0.1970853783812676,0.1812552482014097,-0.0008617626236326,0.3127741407081551,-0.4211501032378628,-0.0430216565260087,-0.4020946288066719,-0.061507784522108,-0.2411104480963153,0.1705237999015184,-0.3800062619512138,0.1357761169875128,-0.1264944998077421,0.4971741658628298,-0.1020649472932064,-0.2401938404155517,0.28192609725169515,-0.39510160683960854,0.266573289771273,0.48984617184158197,-0.4631292429127971,-0.13579671146612748,0.199703894070376,-0.41324648213039883,-0.4067377469961083,-0.17118637886254523,0.218103754774431,0.409035010496003,0.4892349913584567,-0.08911627679346398,0.2662503557289886,0.4758313202749256,-0.1016827636952463,0.040398076089824,-0.2200942539748811,0.3215556699213934,0.328481877428888,0.434938709960637,-0.040725391716655644,-0.47236513961336835,-0.157832902206479,-0.23292379165922297,-0.10707180017621085,-0.20211962757027171,-0.4650626892732106,0.3159921108009448,0.13504541231281833,-0.37017958275281,0.38050972539188804,0.3156570711757925,0.32535563777176585,0.2032704447325468,-0.09677386890583416,-0.3031336380203547,-0.4493874860890453,0.32456064559745157,0.16656008498984876,0.21304357209187813,0.45680566743657447,0.09564113211090991,-0.08055168011699898,0.4151427534423696,0.0977586100371596,0.0247386472836884,0.2899952203530289,0.10684783587865651,0.18224499653813964,-0.2126076201356219,-0.2902111325236092,-0.3919289480132771,0.328735855208631,-0.10435173768099933,0.2031291540958708,-0.10853987096917851,0.23207101329960803,-0.1974634273428642,-0.3500333246463329,0.0795474289862592,0.2544704428843217,-0.029990159295365804,0.2087813603895643,-0.09118524945210298,-0.23499927121664715,0.5000121411230427,0.35148807912831487,-0.24916313357101608,-0.4551007115149091,0.4814998404472341,-0.2760802287905351,0.2632618958240512,0.2319714665806915,-0.4389621813113726,0.4127737661428133,0.11429053715283773,-0.20385661607072075,0.3432538808534378,-0.09513271350167522,0.2442904181700849,-0.38198462406499306,0.05950272714155756,-0.1465263358449145,-0.46827239505588064,-0.21993630277506449,-0.05715390335881114,-0.05528567482455001,-0.0698563615366261,0.18167710684865238,0.1808228224831745,-0.028231953851905373,0.3731295554251074,-0.11520401622210091,-0.2704584350685404,0.01485425485652578,-0.35769108743706474,-0.11780177204907238,0.4187425489107425,0.14423602887898374,0.4270089378193397,-0.24371767599957517,0.445742455204791,-0.3093464559781228,0.12509629322298021,0.011803992651967753,-0.21475628068206204,0.08622296270362398,0.13237764015349726,-0.1475475750582857,-0.2721011258850952,0.3524096073806635,0.3994089590751699,-0.4516586460311503,0.01012350573480309,0.13887645770020915,0.11115091196754764,-0.19966178467116955,0.08141138054550773,0.4738337364175269,-0.06627376274696822,-0.1595459122113417,0.09150230652721766,0.4609601464500021,-0.20087445855826902,0.3815250649066888,0.4220484575585974,-0.16459043658477793,0.2214750440519875,-0.1463272617052377,-0.4100190238773692,0.40609098747279854,-0.3395419323356301,0.348053834864637,-0.18139056520689784,-0.0366093619313487,0.14960749262549516,-0.004165865788804477,-0.2256767453161685,-0.5135244752149738,-0.3568327616209592,-0.4822534876270209,-0.4183868206215989,-0.31985084792672464,-0.06354852284178769,0.032095643025613414,-0.13657922425269675,-0.18309950375065354,0.02529952024281131,0.3523067631475324,-0.2096167993359246,0.4090817922378995,0.02902998671054285,0.24160022650219207,0.40799753879388534,0.3144737652596198,0.29715749339624825,0.3270637881411927,0.050090093892289,-0.11828066987457561,0.2886680249547386,0.45017872893330935,0.06667038413823799,0.3761708818986359,-0.3803327804321289,-0.314441915376735,-0.13514746645747036,-0.19494957561250387,0.22865996789079882,0.1730668500733353,-0.0013358231455951584,0.0971349208166094,0.0892675498687682,0.24187169139740547,0.19420145497771527,0.4177496699968303,-0.28998683622949917,0.48480471286868093,0.004368798637211957,0.4553945280164986,-0.12392344236801243,0.1734891933667075,0.11172236998597815,0.5731025821204059,-0.33125752430670374,0.2077618434765395,-0.3667504834908819,0.3991502438326586,-0.1438784743819678,-0.47720813198921813,0.31600477815491396,-0.3944058254541898,-0.27545546885342403,-0.31928345932275864,-0.6686678607843797,-0.19677204259539818,-0.05053767741377531,-0.43480244546005237,0.3768361671658271,-0.1100597671540036,-0.03343028076511644,-0.3079388576726168,0.2515505470655384,0.04427501965546678,0.15984284015296035,-0.1498825636806284,0.6743820863549336,-0.05948292891834312,0.5440716958862587,0.2556025943744086,0.46390391001392595,0.36777695561372975,0.28467401781566987,-0.01766513194273859,-0.4955788056064199,-0.08506470793222856,0.3081419951436525,-0.29599604146274305,0.29210275144238784,-0.39469783756660953,-0.03362251563766536,0.12658512841579275,-0.11530743210428372,0.14915673128727522,-0.34537051515311334,-0.3530113244245509,0.26712774434406844,-0.05172790044942287,-0.05285616861674256,0.131526959293733,0.3002203091956419,0.05286317533854851,0.36550445841415513,-0.05315343234610497,0.09685482107495112,-0.1943214779006688,0.5472190348804108,0.6065708103343662,0.34696335002060175,-0.15782900842572486,0.008509991789837404,0.04620563905706135,0.44092279021803865,0.1234877100565301,-0.3805613226627886,0.24947408311394167,-0.33101301118392606,0.06645746636046632,0.2747538373630012,0.13451790284405332,-0.690242678289052,-0.065559919991853,-0.2805060661736182,0.35564217362656236,0.3283144134151353,0.436484309470638,0.5004014862766747,0.06828732052864223,0.17765009958295494,0.244044980869262,0.34446504496015534,0.17010046670072648,0.4494327746915544,0.3119597575365868,-0.036205320944874636,-0.11895465440314333,-0.0685023855061126,-0.09809068998476012,0.1791652292798057,-0.021917142951153285,-0.42381212938279733,0.0635335561991412,0.037972671023835475,-0.4444945034962881,-0.34062012098793926,-0.3727047312125522,0.2155233272917716,-0.16831282524237207,-0.23088495508210943,0.021279193321042607,0.015488104744139676,-0.49090358676834395,0.24351335996216567,0.6766736052380306,0.008941009998373023,-0.26084300490952544,-0.28085882376488486,-0.06764653085200993,-0.591951538913004,-0.33918340407859654,-0.40442266623328016,-0.012859968615442845,0.29638977441211606,0.34864972294534835,0.05071728659704959,0.3691010791259507,-0.12043005322136928,-0.46467786832033764,0.1562415810718601,0.25179910872844546,0.2738989949583501,-0.28579050321933863,-0.2760950295017027,-0.2916017858544364,-0.28700911076098523,0.04323938434719053,0.235995824714099,-0.17701070540598593,-0.5810760208405069,0.24269946635318596,0.4963206481223038,0.04124415510848848,-0.1895877757947948,0.3425199625036336,0.04228781588679533,-0.6313288516223577,0.015150821280555024,-0.29961679173391914,-0.6214017572346057,0.0012848890666245464,-0.37115987945932655,-0.3015683917280945,0.4699665204834493,-0.37405127565869023,-0.021212382630237454,-0.3414345270389903,0.06919986773448424,-0.1382807589959197,0.31846728174213496,0.3309929226429548,0.36684608014221876,-0.4160959233141593,0.40226472689111553,-0.06458074639869125,-0.1242626889447368,0.12650429306174232,0.37296488960558405,-0.054395954842344704,0.5949987021999507,-0.027988263746896568,0.1880617521682414,-0.20698266691210723,-0.5731053965926179,0.20649566156176383,-0.42341456777474895,-0.2702667964858946,-0.02090921083735713,-0.2807777909763415,-0.07296187716556082,0.4219499550143806,-0.3986572324416684,-0.32161690174840374,0.43612218655424656,0.040161478713453325,-0.10292357856867775,0.07313882568430002,-0.33740716485585887,-0.15704292793999935,-0.3598676541227913,0.12214057325479631,-0.182419683685943,-0.011446367044017941,-0.12953136066788104,-0.5390880202943464,0.37033171946678567,0.4097576409673137,0.38367754586052216,0.6353176383531217,-0.32780418262742284,-0.04146540973555173,-0.45314561378391055,0.005624996259630936,-0.25718377106854834,-0.06402618234015774,0.007633547059809348,0.1157193278908605,-0.280182460676628,-0.17093279534282904,0.5552480795506323,0.45795612083751946,0.22895234450957502,-0.21793332570785146,-0.11593970638343223,-0.4423689923670026,-0.22774538603904398,0.1931927892740409,0.11755136829188607,0.042866056143854754,-0.2002477442779898,0.020448319157730096,-0.5631820092767701,-0.1567872900749333,-0.3929943857405088,-0.0295107065419177,-0.02979227076318839,0.09939044691396273,-0.44105988082220426,-0.5751228749183188,-0.31190331132338234,-0.08249174188667673,0.3439369198054254,0.2055477642864668,0.25938120856100355,0.1353457256194695,-0.22999721049581012,-0.15329867091501204,0.12446962131067787,0.012561683139099411,0.2312201667805652,-0.29658496833412634,0.36660743363882814,0.11328622785891096,-0.22129370378538982,0.32375273176297703,-0.30698841371389857,-0.06819976726977262,-0.08842456518168641,-0.07044033162813641,-0.20964255148809963,-0.4068684707725226,0.23898711614017135,-0.10175170458202573,-0.41388507864124696,-0.09894761326263861,0.07938538724923208,0.16034876358885006,-0.06190028926156836,0.30770124032305257,0.1792640298493655,-0.08959623121232581,0.09031840304168691,-0.6512405686475399,0.1394811985704913,-0.27105881977557805,0.19349044204609517,0.40583524942179233,0.18615880281368133,0.27209780788406934,-0.288934592694453,-0.06652766037258889,-0.2555854574605893,-0.1959846807496297,-0.3296224525446757,0.1501799405978082,0.04081638793206258,0.10919590967123098,-0.07212972946479439,-0.07712869600913698,-0.6695544264390996,-0.08280273489883166,-0.5045055040087147,-0.4457004536607974,-0.5149903227200526,-0.02281527153985838,0.26317903591618935,0.6770737494432835,0.2900405024970025,0.3626180563282254,-0.09046848893784337,-0.19436888417027345,-0.32254034621731403,-0.45001287592515016,0.03468491913325091,-0.42589764911003786,-0.19463678884445748,-0.3930850088057146,0.23187644352695222,0.3205840386858463,-0.39314401708516594,-0.3560720650093245,0.5510554121160233,0.40784823723446056,0.2838331708375516,0.4557833820009345,0.1336067983684768,0.023218936578248108,0.029241456576861842,-0.062064583751995944,-0.422447244029861,-0.15582547392288934,0.2572031728898413,0.424801183316025,0.03979820977895618,0.06278478682528497,0.004919365078471698,-0.5246630516220635,0.1327327130622453,0.07103730012710108,-0.5177772712754494,0.1936085665684636,0.14067275775611154,-0.11199274314051302,0.4845492559560799,0.3085607411888532,-0.19646060712992605,-0.4027513449080773,0.35321547956889937,0.18824603468996928,-0.30822538646537995,0.008434830803932293,0.43668963172804,0.00574849253676429,-0.1288165591716199,-0.2727722918727661,0.14823297996235396,0.42928174649742085,-0.12750914167703345,0.3188161222639637,0.3761822424435873,-0.15750504455145728,0.5656541620267984,-0.03571302135290565,-0.31974206774994474,-0.14365479248620594,0.05980642878786484,-0.5964866332588861,-0.12695657305200564,0.09228812315567134,0.25682627531702024,-0.12251814927759236,0.30214240727764824,0.17367126200607896,0.4795571230549161,0.08692836593388759,-0.37176743087303293,-0.2930941149501617,-0.06575455441547293,-0.149265639393206,0.42966156162870967,-0.11924566584530552,0.5951897461180379,-0.14025787340516838,-0.09381730961765439,0.003982404722194182,0.5777066894215812,0.07927451812595203,0.5890161745167395,0.2554117783064608,-0.0775213145100439,-0.04483853211414879,0.19311662928624884,0.011284121478777024,0.11455557329796484,-0.38667616968523055,0.1522152818741143,0.19327652800145473,-0.15518437191806125,-0.2214096019493067,0.16708878471109842,0.40872212619089643,-0.4333662067722261,0.27965849693580747,-0.2712238018649289,0.5072964137667973,0.23130714266860342,0.057097416235881854,0.026972022829081697,0.5433358026891039,0.38609877956745625,0.4193834597398164,-0.116759161249078,0.5989707904608517,0.08411284292235814,0.018327194827322243,0.20117823580921998,-0.28842792619353436,0.10305185741544556,0.25878799795744256,-0.10358572388874399,-0.6762120529934817,-0.4683281502924299,-0.4397868643246088,0.17385246432821516,0.4102838293585326,0.19399366578294885,-0.009007473950447278,-0.3984290183900319,0.488040886269819,-0.391649579683183,-0.1900835653678847,-0.224223834819235,0.09847136242020316,0.4246001467168554,-0.10335284587802887,0.2543061622540614,0.05197861335821701,0.3078015970616651,0.3110132155409819,0.20459218669540397,0.07282364802732395,0.1040830048599817,0.4683346559228246,0.0044546880006054715,0.3406084198521082,0.19866704367761687,-0.25986106373295254,-0.2339973486299528,-0.5463765956049947,0.059512319818484934,-0.42009194055302845,-0.31529056300723785,0.46037764916716534,-0.4885980145000998,-0.47857546799959627,-0.18813998726584083,0.4196244964230161,-0.4209098841570529,0.3087011112266403,-0.10219937015471618,-0.280210928415134,-0.10879223529474766,0.21010875680836005,-0.3366959672770572,0.45905358531569374,-0.15671037893215073,0.34367264172596884,-0.007038540861850117,-0.07251903904302956,0.16050368980127536,0.038103910434163425,0.09617648687596916,-0.3650917687966563,-0.35848501061702504,-0.4809341304455124,0.11251435802810572,0.3821898220484252,-0.06465170145457179,0.0320744448354925,-0.022676700703598892,0.4061709916699738,0.17765232080375096,0.4021466183325379,0.25577514986309274,-0.0737573613574639,0.4867058237353131,0.3901638138306648,-0.06451094295645322,-0.4259857801534264,0.30557836105349795,-0.41050600512741914,0.2919035095610537,0.30803629955300205,0.3401968272205183,0.20331780041738196,-0.010191763300618243,0.11172385164454558,-0.16580936617695097,-0.0750062115768697,-0.34605530717626126,-0.18128708028449658,0.3356209301766826,-0.43295943479343163,-0.00656190523293353,0.07468037449567488,0.1293773073370681,-0.3850329837633296,-0.4786524084092722,0.3864290685434709,0.4533181677134365,0.48288335522762343,-0.3433156601089389,0.2821507348795399,-0.3617824192828681,-0.430282080690118,0.43472735266045587,-0.32927600148937125,-0.28617042934517717,0.4331505392593024,-0.01680071530515381,0.3872473818279393,-0.042199583778361,-0.4545478451255876,0.23061433038464887,-0.045696179957294955,-0.49249819128913674,-0.08772886018307068,-0.34662220859145526,-0.14248570474911218,0.22169827960261856,-0.24998105570576554,-0.43467429819026904,0.0021789460620838296,0.033984183701885655,0.039480220175562776,0.004123469619164916,0.35791455347687456,0.4302503804027291,-0.2808752090511105,-0.2408273698860179,0.4574758429635309,-0.4535529865894241,0.101732263166218,0.4997882360596433,-0.10129387122202173,0.403113071935328,0.2087692805694168,0.11414147350403989,0.14992699740051055,-0.453093364676313,-0.334768218997592,-0.33138632485496616,-0.049442921071314254,-0.05399747118027893,-0.08089128362031854,-0.20668279589291677,-0.48480893964850874,0.41664280715794616,0.04866826760993043,0.1393287842329691,-0.0991865367797784,-0.19765601332598215,0.09038201252783025,0.3358158245251929,0.29094417856050936,-0.1673134431558698,-0.232547764632576,0.4270340644763319,-0.1654784685553393,0.2655823098436636,-0.0728117648550445,0.4972046664214274,0.4967126314743656,-0.22236687152178328,0.46802355871369733,0.2139610952153834,0.21606900367489099,-0.08293092264329473,0.22431658001465954,-0.1905293390183315,0.28638349626080867,0.38532383184976865,-0.37338160879376797,-0.1519621223981312,-0.07300492192774692,-0.2246965281237265,0.1250197403552604,0.08406374530604023,0.2856840168452421,-0.142851694961591,-0.1140590603646624,-0.0881085058589456,-0.1717572252398879,-0.3737797959333117,0.011999802332683,0.3119847933650324,-0.4385202636331587
4,0.3171457088566701,-0.1647138658752021,0.1773550440692095,0.4635385171427797,0.0594570598018835,0.0255192869145489,0.3620853814434402,0.2400930866034496,-0.2942230502967613,-0.374115635707001,0.3013404087009549,-0.1184521104964312,-0.11317717474595194,-0.2725791973189434,0.1728626848100609,-0.4272455739788308,0.398708151896129,-0.1446448058625774,-0.2140648798432165,-0.4127481228522714,-0.4817683767554346,-0.4083708082928451,-0.4716926337221581,-0.1102452603991588,0.1065071034438794,-0.0642175037446378,-0.0089719776927302,-0.4943320722210255,-0.2512551006058339,-0.0777396107998639,0.3101021959714208,0.3986193137113289,-0.027035176378879,-0.04742822944495092,-0.027161156936444542,-0.41479603450402974,0.48266209260714077,0.47865826854870447,0.14150848650281406,0.0669063667475294,0.26661108873095624,-0.20322187450172424,0.27208744238628674,-0.00782131413455848,0.20640171013821276,0.290181206811904,0.2159876907527358,0.1863053276694992,-0.29760674225325,-0.023798106893664253,-0.3697886950908322,-0.18481605852881988,-0.403137166541329,-0.4816824895074554,0.3112394656994365,-0.2846415421930833,0.1383846673601073,-0.2700831185270097,-0.0071613377500658,0.4323163408756586,0.08586052247893912,0.1491789248816561,-0.022392035003890493,-0.09140043925187634,-0.3308246719211236,0.13344703116850773,0.4471943233825872,0.019966995555721664,0.3029470684087647,0.40759489772797625,-0.26667543145385025,-0.21844418388976078,-0.3552895702912825,0.07741084287706776,-0.23786523876744353,0.0745826883871153,-0.22159038475559012,-0.1952059334595981,0.369236111447546,0.4483788534963996,0.31553829821543816,-0.00292116462174267,0.0357574250659138,0.3679426832517002,-0.2235540927989564,-0.0373528751612324,-0.0960182838968529,-0.4933645459560271,-0.24376343417767657,-0.05046697089748915,0.4049974577517169,-0.2845318543795193,0.38886311124960654,0.0734499024880176,0.37143706027767326,-0.08815239217088051,0.40343600351308717,0.14531359712244066,0.3586903654088083,-0.03284839345077394,-0.20239597671930737,-0.2652573196400379,0.1377245083601417,-0.4609949304519979,0.4076666061145205,-0.21066783385065965,-0.501832956253635,0.21437271153160004,0.2733743038221212,-0.030895386810338165,0.0985395977409308,0.0048656849152608,0.2105037697288735,-0.47618882445249466,-0.028470651505411258,-0.05195534892635452,-0.4611476604417078,0.2327349943120214,0.4595040102165377,0.41439622881203697,-0.3069327350583423,0.2815332196782725,0.384419119728758,-0.16866625866081505,0.17402743906806023,0.14152925037725508,0.3170001071217036,0.5817757235400403,-0.25553054908864664,-0.18222339110599883,0.05799061863167804,0.2709477964296138,0.10760950236020324,-0.04107331021469753,0.24365674640015225,-0.0019936887921399343,0.12889573868592089,0.41682452692139915,-0.19208883977125163,0.1219671476066091,-0.0217675436163731,0.4218070735467147,-0.4827339963433873,0.3712742363945665,-0.06099255594062673,-0.4257512571779936,-0.24812786025736083,0.04886516631722649,0.361610921224058,-0.22959188238234113,-0.31076364229239395,-0.21774277894720465,-0.08133932668510835,-0.391459197335855,0.3343214490956192,0.4998881369532302,-0.10922020718808083,-0.3113697065377725,0.4326365770143303,-0.34235510737660246,0.2488292675577636,-0.2974537966117862,-0.5024518108163587,-0.33467570038956695,0.05155849325852443,-0.22657367799639047,0.07560167705002935,-0.3000714326349184,-0.1680022893040716,0.08366168913235528,0.26126287459077796,0.4649795209670569,-0.15833843081776394,0.163157270195046,-0.49605886301440666,0.2570618133133695,0.2868423160674408,0.22787832234299146,0.5159507527496568,-0.3111134503658435,0.321795342709379,-0.16394403600921797,0.04347295581270557,-0.22833180944298062,0.0328312517785903,0.49367135595459727,0.2522841702581208,-0.049321912876331066,0.19324861033673368,0.19075375527813135,-0.16677505960587347,-0.3511702581979357,-0.23018661244427324,0.45625411368583846,0.04851187599812618,0.15667504237362018,0.16856686386069053,0.09746531923680647,-0.14068964144520807,0.3572948722216489,0.003764333238971648,0.367590326583201,0.2623382871583293,0.06572435327168373,0.08802694929383198,0.3497557201800643,0.06315890041497577,-0.19187933088344686,0.44099314650115257,-0.09305070386837076,0.16632530269922807,-0.17883871729324907,0.011347323730507555,0.25100083919270416,0.15290890468137952,-0.10652104425694803,0.44034116371206095,-0.09650890329535751,-0.2715814769057907,0.0367773795418494,-0.03515333108965933,0.2620741607711726,0.22139814033126884,-0.31577300695400634,-0.47675307155001834,0.4604065163439575,-0.0948207162739861,0.34887994188836774,-0.23375815641807707,0.470185010297496,0.20769023918078605,-0.5217380634139848,-0.38645427864856374,0.04627668953316649,0.17553814918660532,0.2849972620336783,-0.37371886256426523,0.048366949562254784,0.025585287048024947,-0.01927233143586203,0.4640925947251007,0.16689924336808662,-0.11086824118300659,0.36776344322923044,0.08944272767493276,0.13529172530618586,-0.12995395993863368,-0.30959680213462026,-0.4934320679701315,0.2622304527718918,0.20998234287185477,-0.46151534569371233,0.36654318810827935,-0.4322155797454049,-0.26726835816333844,0.2875489728820214,0.2351858918125287,-0.35157201563240903,0.49120036256209576,0.10587610417244099,0.03954498700143384,0.011447130021176132,0.058873772098601174,-0.29480054352007723,-0.4529687995855273,-0.134124099118566,-0.07337654636971198,0.12571325267671846,-0.20880432891683326,-0.2722524786273787,-0.036875406278575454,-0.0893659184474406,-0.09137364855449065,0.4339872528438114,-0.2409524900554652,0.11710880530299209,-0.42454140143026264,-0.02127928670982278,-0.03627076926492515,0.04622795801086855,-0.2057456949956117,0.044951451602485114,0.18853554157204863,0.10286047151339693,0.4546750985425214,-0.3315434719761161,0.3496701956673326,-0.0036497119942408254,-0.2968059876786189,0.3926166553503758,-0.33592126377078046,0.3165848639912258,0.23745601560749582,-0.2984508401368428,-0.112703680486844,-0.2183962518450908,-0.31723839693516226,0.4744099556809801,0.08609414940346358,-0.4626138575275957,0.34321300039455793,0.20584138782371209,-0.3423799376771657,0.41848615101635045,-0.449723760030211,-0.37803960232418216,-0.35532263174008893,0.32162774989053994,-0.46933362643360066,0.22220895020470793,-0.3455349134154096,0.5230032660177742,0.2298921216774669,0.4775384239298745,0.2334181216365026,-0.14100404430117608,-0.19302274590470112,0.3187802980474098,-0.19720278267131233,0.1585256619670323,0.5711489131987783,0.2388347796294008,-0.12156996630684473,0.1766387313245289,-0.26737589853667226,0.15665984585849146,0.4429690258877386,-0.5200672484594127,0.43661653366890185,-0.11457381267206065,-0.07524602054053625,0.0722224232100341,0.27279273095188367,0.4865362428337597,0.27321719753058993,0.07405722716421986,0.1795070501635822,-0.1308034775979202,-0.07797047548391374,-0.2570010917714138,0.13591227527233832,0.40053309740440857,0.481478835282292,-0.330759658788415,0.11352793987934048,0.30212448239253586,0.47211715402332194,-0.0759526576966729,0.0641397484355278,0.42884366326935414,0.35076989253039786,0.7742145305569839,0.5927122615668651,0.09265046363900585,0.3047077645551083,0.23999286669844172,-0.31208877860602013,0.40460049169039786,-0.44187256322976376,-0.20789763110754866,-0.4778634036630319,0.46764235703589807,-0.07258951773626815,-0.002399851712249298,-0.49236204459962596,-0.35727154634389846,-0.06311552632520537,-0.10481832899500292,0.21168530919239512,0.4449577605964117,0.31241087645161836,-0.11610386309954038,-0.16701584748272832,0.05451604751235833,0.13100308580822315,0.4186598428849498,0.24930536097538805,0.2891525011225078,0.17396370938583705,-0.07083360151800544,0.415350257247203,0.07759946291971757,0.003178935940818469,-0.06879954595819318,-0.04379159068320409,0.3971758627652254,0.2453025553816622,-0.15328498751151504,-0.4031349037923988,-0.23778730127642753,0.2363721409908188,-0.2557021993873147,0.1399377022876638,0.05319747462695262,0.1581678145221375,0.2980748038593309,0.1500147018864926,-0.31450720386554376,0.3258072721562415,-0.3169630681958205,-0.4332551278499774,-0.061165699946942195,-0.3386006460646148,0.308870964434391,0.10102948486939126,0.42307274010334034,0.03418240615307971,0.5185086341767368,0.4399189507952154,0.12208680318328569,0.40155203562423136,0.47929533084069176,0.05117447987761884,0.5076072164173208,-0.18714816511311036,0.3001426869890746,-0.4404657690219373,-0.20051025768040087,-0.3469303819925184,0.287978303512888,0.23366847288402465,-0.23265159151840106,0.24791067066164793,-0.1480100317050824,-0.25233284991712457,-0.01510239601510486,-0.5014112336634982,0.05202415708397328,-0.2906118361787014,-0.08886115235935624,-0.3766558775676995,-0.29126080109556673,0.4887928712042415,-0.03578624177718157,-0.07022663521707097,0.2743590440641636,-0.3012388494388839,0.039684705297489964,-0.09562859949637502,-0.22235448565701044,0.2841207804744048,0.10200943845457258,-0.05693040394731816,-0.4080482150522208,0.07307865710858816,0.4554507232326481,-0.47114664930765127,-0.3880973516141716,-0.20480719460121763,-0.015527517419982033,-0.19478939103993204,-0.3338317974031674,-0.23539291695852932,0.0916372354319363,-0.48168289523972474,-0.3863874890270099,0.0410070487986503,-0.7048159533845124,-3.1551588421052846e-05,-0.2734850404771732,0.2697321477736022,0.14665770545425288,-0.23261237185337172,0.12687186672499817,0.22189367290461795,0.4173374056657332,-0.14528434296873086,0.3086612372348723,0.4134299248889806,0.03803452653324631,-0.198785726501648,0.30167396216667286,0.4143285876697305,-0.14238387086845283,0.37498330087061515,-0.18911819267448954,-0.4100588718786543,0.26882647510246066,0.08764840365064065,0.3223741515151946,0.2732615750128847,0.016332643455389182,0.17643702165300568,-0.34499875431144345,-0.4916144824734056,-0.5677667858665227,-0.38245332703968304,-0.680129885743956,-0.5034660655001215,-0.3411189430105143,0.19973159004098986,0.15069991417972067,0.21121911189173165,-0.34663055464996945,0.2535868711176512,0.02337695737750012,0.17685598810521785,0.22417124437498934,0.14331531816563642,-0.27489092466943243,-0.394257419341865,0.40018447539521534,0.26850712955374534,-0.27472475439849126,-0.34086869604293385,-0.45101635766789805,0.30359555869388855,0.3413518442791667,0.455981904029924,0.08081530151312197,-0.12340739533781617,-0.3743912105308867,-0.10832632203013372,-0.35245572686710036,-0.6175672992767761,-0.6563629207586261,-0.42102650188747376,-0.13326457347312406,0.08177806141597645,0.2947954572905992,-0.026162625027396674,0.11847238851212306,0.4675514604932456,0.02283376339679181,0.27979435138521974,0.3379339475150752,-0.1613585653813404,-0.08019378431985767,-0.24204160841187744,-0.29169747777473415,-0.06089402146142774,0.4131184601548765,-0.3602434493510469,-0.3571054573585351,0.2427293937426142,0.5382909231945463,-0.260354645922177,-0.2035071811499955,-0.08895255779910918,-0.23246803277613906,-0.028333856516143948,-0.6765406301456836,-0.278728654036575,-0.311257452705091,0.021382033426613514,-0.09642154541143987,-0.33259406104930894,-0.28703905779065314,0.07733269968993277,-0.1706174800756739,-0.27142933305569483,0.32790481132841215,-0.009854010084668704,-0.07352615490959395,0.24067147718078188,-0.13458139374409464,-0.07300516526728695,-0.15725051060402687,-0.2848901092150661,-0.18715046631065885,0.4297593789126837,-0.062358140847987166,-0.3976745131655803,0.4927480015093737,-0.04349910189015028,-0.011893383926618067,-0.11887464362203905,0.3608404575576898,-0.3510880946025856,0.46570147636005865,0.05103986833776254,-0.44559026890242015,-0.49166077936419417,-0.2206218993923132,-0.26419331388047035,-0.275670931978637,0.507622305562076,-0.22984466776549228,0.4533689526605311,0.03737815203873672,0.45818790062008774,-0.11364220240601708,-0.23422832810124333,0.23412011111239772,0.0868515442151648,0.16181227059124095,-0.02286242948373256,-0.4340455520921461,0.04817876281795282,0.4311376071301491,0.4727192865882574,-0.1131190476224034,0.07261224423217966,0.13513746638281315,0.23106170663570283,0.32764321283859943,-0.27807928533032145,-0.1402856123907361,-0.08181660298296452,0.1898035072975592,-0.029086989265231695,-0.13085624937032803,-0.45573446990533517,-0.3018730145628874,0.2113410352196073,-0.19110887637128596,0.015341566174277779,0.023766585188392947,-0.016769741225120444,-0.11371359489405791,-0.4179180894989145,0.16375028085868407,0.20181956547784746,0.40114327409496087,0.3000724042191697,-0.22814286323749858,0.46989357564144757,0.4179763845547429,-0.05165704773781776,0.19537717794636636,-0.4021206200329665,0.40540268870015816,0.25844607185315605,0.12882949827975543,0.2663180921463133,-0.006023762752236856,-0.29776306719593676,0.4074732728016359,-0.15410967775234122,-0.43946564235681274,-0.0021460745294365233,-0.0020288415443977695,0.3833000268832838,-0.2169655943758867,0.3593647949833891,-0.15283004018027477,0.36925338445248396,-0.4336059344858477,0.25230110266613776,-0.13423211329493637,0.25925171352257087,-0.15139229642749952,0.3532092002781151,-0.38815088063487113,-0.2018163076586793,0.2578046319763226,0.25430742105007614,0.4587642428313872,0.1541536418215112,0.2946226172385643,-0.006585113827213553,-0.39583236898631385,-0.17942439687184025,0.018428916808432505,-0.34707644345083144,0.3157962407270132,-0.13867251807319791,0.2081981273036262,-0.40801775499442966,0.10356744872359866,-0.4263756513538677,0.06004582932811438,-0.18032348024356368,0.12282056926076104,0.38185638309473097,-0.25497206879336004,-0.2662798393230389,0.12380250683575215,-0.11107020054153778,0.19862925133147663,0.059941354604825095,-0.3081651202383721,-0.2820702685939057,-0.1253962222546299,0.07681939150744932,0.42252015463906745,-0.008751443626965328,0.03447038164215302,-0.06596131054839029,0.41106951581905726,-0.3200308177747213,0.4279020233720315,0.2919897822628057,0.3966444212717764,0.02399648103488193,0.11385488229537126,-0.38322022459401545,-0.4852484434663592,0.3773904419404228,0.03393438915768004,-0.44079187442069695,0.4611722960824766,-0.3548225295828707,0.35785157824133107,-0.35609235765001623,0.3882237651271841,-0.3737684881679105,0.2472535094154981,0.21659175128161343,0.4905285175460433,-0.309522334486904,0.2865063326522237,0.3286804514267239,-0.2933470276398755,-0.21809432455366562,0.3556682241233825,0.48161742019473175,-0.20610497475430473,-0.2848611417527631,0.5805456179888427,-0.16450384299227508,0.08114062643786496,0.43099559034377616,0.14276956777235816,0.3688915915171424,0.08517680775533895,-0.31921740009289845,0.48645828414183995,0.40693370299024123,0.48169233782454424,0.22593214510072845,0.022580075132514532,-0.41584617778342664,0.4576430229862231,-0.073036947772453,-0.2647859245436824,-0.19744041095530718,-0.2527452240382488,0.4957892259485016,-0.1604921135190191,-0.0504572469979405,-0.13799842940042092,0.42899586284024477,0.4488717187105386,0.3191000735265532,-0.18563728280174296,0.5317466729884773,0.5194373486240296,0.032273553022672846,0.018663880363435883,-0.044055875466560916,0.5030348276040904,-0.1354666446627003,-0.3404387179226628,0.20451146433087014,0.3404796426142997,-0.2653765065310298,-0.13550858583044592,0.4289912326120076,0.09235879276618231,-0.060957499010438176,0.45372655944318885,-0.49668333327405706,-0.031605822053767975,0.3357730861283641,0.0004969835060203,-0.0915795797012528,-0.1227942277500683,0.1379844525528872,0.497805371365091,-0.04227027522268624,0.0040417523605851815,0.4287640270055052,-0.4498291972622728,-0.05033583959785963,-0.3679666848269469,0.20103009079194134,0.28671328079772196,-0.3899210498960172,0.016733483162966648,0.21439542734882353,0.03800043325871758,0.3267682720062178,0.13665758725414584,0.4185743349198772,-0.2513634492217055,0.3959743434896087,-0.05801235417092058,0.2497826493813946,-0.30794460333420604,-0.1038296351019026,-0.1630270674960334,0.3316977492060847,0.1344638571109431
5,0.2045651241122256,0.2336407094488596,-0.0791171447261879,-0.3492778188144937,0.1745900296529845,0.2430611280279192,0.3345741357683945,0.1131919745906321,-0.1811812020774545,0.0558357001743979,0.4393936349855722,0.4281573556500591,-0.0856250044886787,-0.3403411268616876,-0.449054147790687,0.4586648837663197,-0.0450993227645294,0.1030591414148649,-0.2456566351816023,-0.3674812651696182,0.2663881574543921,0.1265584158221423,-0.1140030668984231,-0.0577107942180066,0.2741578450873643,0.0075451127130524,0.0547516650946439,0.3620986985313232,-0.4378300017092312,-0.3778583330347724,-0.3525656518006808,0.4414388057497628,-0.36096517846166537,0.32189742787204023,-0.4545945118481955,0.26298239955076685,-0.1380559189087555,0.015258027522135047,0.21289896623438606,0.027804448559617303,0.018158719278243775,-0.2938375431804898,0.009527631795574441,0.28532818018393646,0.19159294834411977,0.11983914826951257,0.16323831582822926,-0.36593507725647983,-0.3587605157063196,-0.4153085654584924,0.24897837681876606,0.4509932239426532,0.4981562385910096,0.3862343434149111,0.1492135303760702,0.3035982859958577,0.4361394306114239,0.3654077135724675,-0.31811616123638703,0.20570911230350475,-0.27676098084138073,-0.1480682817886182,0.3939270083088359,0.04529049501330989,0.48451455879457955,-0.34938982555078096,0.18362776136547962,-0.25207155426209443,0.2897025649465327,0.4812790511234877,-0.4798212281027836,0.18448997914416357,0.27422310711720366,-0.04007617075241902,-0.2780071325475024,-0.05776875914859173,-0.4084786922299965,-0.21987718508777046,0.08916314380321676,0.23115354183919828,-0.0173337272011861,0.09442598435197987,0.4236102375907375,-0.4144848506497711,-0.2258720694461352,0.0432545290950596,-0.3850506195933671,-0.4007291556351291,0.40041061123909066,0.2771310788819496,-0.06542218453594285,0.3947889309196535,-0.3320716086171562,-0.4248318026086647,-0.3151511219405929,-0.3235227837874198,-0.4839311722708448,-0.3595210170380999,-0.3343444025579731,-0.4780752781056296,-0.08546796548535267,-0.33117400252758283,-0.07709230404952606,0.2857433269369732,-0.27217103440626944,-0.2802153763467211,-0.17960870474602672,0.15982144900053857,0.02478300316749757,0.24091347095087182,0.09215885341643663,-0.3568454623641091,0.1740827649766172,-0.0152086448002799,0.19296060536186518,-0.09559748134422337,-0.4282619408699193,-0.3853717963946511,-0.07277866925970872,-0.5043577428342533,-0.48330172376454583,-0.4597042922655411,-0.09972000839345274,-0.42345655058280496,-0.3697346167547127,-0.2091744374020645,0.041452585328775965,-0.155642191815541,0.010771223919278606,-0.2956151239690275,-0.16434708281627966,-0.2824091077051712,0.1073784363512049,-0.2663938876893095,-0.036435607223312336,-0.1938978411353944,-0.44525221297762235,0.11991767650661836,0.44845992182857364,0.4694055610492327,0.2003956075617479,-0.0298662019303892,0.016212491605647878,-0.3760021737187465,-0.10842525430911215,0.33103421823979207,0.2975160347914988,-0.20804271636430247,-0.5818614573905175,-0.27473355860583953,-0.026472579499524942,-0.6417043155119155,-0.3108750432061168,0.13694133193123478,-0.2120113033230448,-0.23096361956474123,0.09945354479672426,-0.318498211660902,0.29248129392696337,-0.3933778750270643,0.03682576996608291,-0.1266480434825267,-0.2972196322731271,-0.016315191764109754,-0.07288296309488218,0.2874750107815532,-0.4256035496556513,0.3563647458364896,-0.2546707097548775,-0.02261747407379303,-0.06769904600853607,-0.00027705782643248553,-0.3850344176535193,0.13544579768947976,0.23249021701926723,0.10186136209191875,-0.3025641383637452,-0.15368692281480187,-0.32848467420351074,-0.04861516434344119,-0.08179462522753429,-0.3480323635349311,0.13984673229780945,0.30593824211727433,0.1566223091120696,-0.10261867728570918,0.3203961349932918,-0.32829133164335805,-0.12414308546597158,0.25013689631078095,0.26253320158390525,-0.06938527459972219,-0.15568919462705852,-0.25110598173177745,-0.22618545841059706,0.12096638993038861,0.43425892653920867,0.320487319602191,0.28567717371611495,-0.3018547911872098,0.1556735988871547,0.12435009004589705,0.08514313209082014,0.15097634983740268,-0.22531285348185776,-0.5100202082612904,0.34651403281168935,-0.32072946461202817,-0.11108402784352679,0.012547503592801615,0.506955154158964,-0.03597380076297783,0.3281011357922017,0.5159704512539148,0.1608743454363057,0.21246930659722707,0.3818887232233147,0.17634634230301827,0.3449543508012081,0.25187544446958116,0.31927685189896104,0.21929148557730946,0.3484618212805202,0.4411232578413007,0.4763735884978457,-0.15087170383579757,0.08696926844765808,-0.3449045888270262,-0.28273527875343774,0.08958437197687562,0.12440207667694472,0.28069722188018736,-0.10227757110395974,-0.06064061048096422,0.046348101843144154,0.4699461276484493,0.6543992352661454,0.6498538532287372,0.32901175446967645,0.28847741201900484,0.19913018484396441,0.2365016386568835,-0.05388460828382333,-0.048840422174224164,0.32096472895843914,0.40750887750467896,-0.2316667296066576,0.2715274096288057,0.5017134078154384,0.2485420699224228,-0.1009287357659785,-0.19837797689680486,-0.34279695757618583,-0.06379348148081217,-0.4417024795707874,0.13204311149688056,-0.06409512219756641,-0.05146148992844355,0.22157469186518694,-0.34608947866289524,0.07533638667169414,-0.19333584360181313,-0.2241130766762071,0.29724544178623785,0.08718407729583619,0.7359157669005026,0.3267267181797492,0.002549422115644176,-0.018082570517092483,0.057691031857825446,0.40289161942416857,-0.396638032634832,-0.014002742956485388,-0.4217001045106744,-0.17827688116321427,0.20213915448866748,0.45947046490134713,0.08167626093379649,0.18653683863528994,-0.4397455418661524,0.2596218459753276,-0.3361784753135293,-0.012367091684375438,0.00343216982218773,0.3147786640952627,0.0004860334183658674,0.09349283651130941,-0.5275658349244088,0.38081530548591597,0.5098539382468138,0.12501179203246288,0.40164552492224026,0.7313797927310476,-0.03780896739591789,0.563559407310176,0.3028228865788468,0.11633055232756208,-0.4119752220935668,-0.16661267321301554,-0.37428182382402214,-0.4406298602240001,0.09849075466529009,-0.09039590656509695,0.10626001756650971,0.37921885072310335,0.05208421704772117,-0.2677538962656099,-0.43405195605007213,-0.1242350385960889,0.1136027456807851,0.008435681505957138,-0.20937269654380872,0.049246800154075045,-0.36623794641589313,0.009801056696669936,0.24113262151601064,-0.3148108728800517,0.1220409623698597,-0.08218656080704616,0.2474106256589985,0.2989492866834132,-0.25478421850537564,0.04964916328979292,-0.30605540725823316,0.25926895640481595,-0.18588694222484384,-0.3263559163221108,-0.00701265749269625,-0.2868494019071514,-0.26991894724169196,-0.3188185456250983,-0.19778626799034135,0.4608177608807746,0.18190776898109534,-0.006157981634126901,0.22067444304498657,0.25673794634788466,-0.1597859817731878,-0.3611585019955552,-0.3670968990887592,0.24343535712243203,0.5149081950957383,-0.17925021737146485,-0.17128851131252587,0.03235507373653996,0.3243065651921302,0.21639838228839936,0.02582184514921159,0.1163221825941984,0.26981769780213666,-0.5466954646261191,0.04536899476533455,-0.11468386908530545,-0.2627402430911829,0.06808461265818959,-0.0358679002283826,0.053009837721443916,0.18886260597409502,0.11953344626881775,-0.12610753736780891,-0.10153120031447314,0.2409886670034018,-0.38740690523843313,0.24584862220238082,-0.23700338980296437,-0.4758810430987879,0.3526159494998032,0.4654301784480202,0.04022367076859083,0.0894880841915465,0.4246258966863344,-0.3618153862497343,0.3575561422910211,0.37696560597606804,0.2799000566399997,-0.25224636676314754,0.13712496995847276,-0.4829021052104397,0.07038690817943694,0.09321395484498196,0.06973010025334866,0.16639984262108626,-0.29216589033721063,0.06524181406195138,0.10828735366351297,-0.36758951777179394,-0.1238612111885328,-0.4004404312358691,-0.3442200519178753,0.2595393422657758,-0.1551731545865638,0.4822823547793668,-0.2001046704214835,-0.16519546249827347,0.30686784123005895,-0.07038201943760865,-0.17067963844163292,-0.40602428896329035,-0.3398752544355853,0.36688188636497604,-0.553522927780751,0.1888099785576504,-0.07603261522362677,-0.22689038754258029,-0.12496403916068644,0.30922516532394817,0.09665745971537776,-0.28203178399559115,-0.015095149317796824,-0.0735004091708355,0.19225154650392617,-0.028340757545071805,-0.3141203864536044,-0.06538726131489866,-0.2924538259222371,-0.532187490729167,-0.1929116772938485,0.29426111656754467,-0.42415678166375126,-0.2664246078195418,0.06517392563616314,0.48991573724479354,0.3097364642994513,-0.43936899771325927,0.4043361407652558,-0.013082327942601323,0.2844785919878537,-0.29042300192507686,0.2674923067125866,-0.03655639261202493,0.447248422585073,-0.16556626129586902,-0.40437892912900936,0.07272800003772129,-0.053433463346498226,0.27837459263647296,-0.37645049507979694,0.275619730207837,0.3923757601221216,-0.23864379062984642,0.21822107456099882,-0.2853666775295601,0.3391474907160691,-0.17248565388040887,-0.07975701704747912,0.0031690936461546853,-0.3744471206965307,0.16654545769506418,0.4306018665594167,-0.3045003748114559,-0.24867415637719176,-0.38761667070284334,-0.22975662915907816,-0.2542722325537333,-0.3110363380296305,-0.0059055884189432245,0.07797820662574181,-0.2462738028089111,0.26220334302190756,-0.1692843715521894,0.2078449797748405,-0.31432402245708974,-0.37900359339931516,0.19766260114375844,0.4128556972399833,-0.4054676603747828,-0.3253335906865308,-0.3385651692674959,-0.31640116517888195,0.0897616893919052,-0.028179630163170665,-0.43540947482480913,-0.34257009176745484,0.2790948617905578,-0.4728613980680671,-0.3374294008043049,-0.092173924685794,0.25879533645376385,0.40708570724122795,0.3963035658513449,0.17217600880501277,0.1877579294414375,0.2651528022699282,-0.314495344882025,-0.08383706236585792,-0.2325972850764709,-0.1813924056404466,-0.5852700120888308,-0.4154629224698654,-0.03500633356869107,0.32932358188897176,-0.2991405209728002,0.3418669380661934,-0.4215276054765923,0.2609886037056886,-0.1273360936381589,-0.21332254066684622,-0.48892357212905024,-0.17736810127193814,0.07346574925811211,-0.12889552107639626,-0.49446640185238344,0.13855556663119264,-0.06387558323195243,0.4360294492685882,0.1661964746334589,-0.04133217252507151,-0.4809624381290279,-0.15290713559714333,-0.49322676250766073,0.3290905543623904,0.31474652641424944,-0.11419198604650099,-0.028383206841987994,0.17085854203953846,0.21943684081557754,-0.13929430620946912,-0.25730268845365417,0.07240339099945682,0.4696865259798265,0.3079565748735113,0.022135214264409883,0.10164531419213942,0.5174335710684842,-0.47622051379899255,-0.5101677814480446,-0.4374620947139183,-0.40378065127625895,-0.10057843927226036,-0.2905055905269401,0.15475310778037102,-0.1391094253652041,-0.26467419980110973,0.413116814900773,-0.41416546414497735,-0.3477854221459796,-0.2616075820620679,-0.4226595103398414,0.05572470652078586,-0.32303194766645443,-0.042213171383045235,-0.42914906374416195,-0.38274770039374656,-0.0034823106379117627,0.06947513242495461,0.27639219658314906,0.16543709226790293,0.14339811526706128,0.30633851603800905,-0.30322905845370546,0.3598826738058843,-0.21609686293637095,-0.5238534024798579,-0.08956054243552486,0.039255641486971374,0.049671965436738574,-0.304658144385974,-0.3291713040020467,-0.3345065371281257,-0.006676435411149397,0.3834439378622223,0.2725345292435052,0.3979704383011357,-0.5175092443602889,-0.22253233309939574,0.19009594691497,-0.08246905744298771,-0.3514017453015212,-0.5695817674596992,0.05104502597553536,0.1792947719718028,0.4111628703694911,-0.0748057392974495,0.39479051442934604,0.22201958891689533,0.5979243645041821,-0.016235047732836794,0.3913116481311549,-0.39417810282505034,0.004726597010870828,-0.5226767874506965,-0.4881012032645042,-0.11440739435548264,-0.18648906700276824,-0.47533049264966,-0.3745731299153474,0.3443207348126865,0.1859604262923205,-0.1942846714182363,0.2568324096883707,-0.1741875737235099,-0.088916708700239,-0.209108564890648,-0.10039561322577284,-0.26238281412277753,0.4235612860716464,-0.4071740603537579,0.2690406659565165,-0.10196942070444806,0.05727218064861335,-0.2642709357169235,0.46015399990088723,-0.17259750288918743,-0.025438145299539933,-0.16428610766001253,-0.28500691790876104,-0.3424455608691823,-0.4899355087435933,-0.2921031877336459,-0.2712743999209849,-0.6015118555815322,-0.31815803134639276,-0.029829949291473444,-0.16209286342414,-0.3962445696029367,0.29216570142889703,-0.18324177584003246,-0.3887331741032075,-0.016907728097743352,0.15161980115629076,-0.1441212212989634,0.45138616380496505,0.0880913245319341,-0.0020505295644428763,-0.09187974183331063,0.35932771467868835,0.29816923567972603,-0.10591188029845268,-0.2647999077292624,-0.2017275267991453,-0.1000882123760936,0.3474408074430077,0.4391047012609284,0.06806099611254152,0.26306998859343816,0.2558965615353049,0.2499498388720293,-0.5055554350096635,0.29253651834450634,-0.49120619317949554,0.30582253155099537,0.30992571818275294,-0.4255398026764826,-0.44060464518339676,0.4237845015966732,0.2053224855943413,0.3134585733574888,-0.12530090899919882,0.34001267663250107,-0.48642867295252323,-0.4403274869675324,0.020344512474124464,-0.21089198472153206,-0.1526401064087481,-0.26427955382540735,-0.037280326081024495,0.2481574185897632,0.4328501366154443,0.3337981580585553,0.27154754552846927,-0.23754276460286694,-0.1629073107941853,0.34502567280044116,0.1721430818020632,-0.1481807641092626,-0.567505611471632,-0.15587189535902407,-0.14833904634663286,-0.239286248514136,-0.14810223656132948,-0.23731352901046615,0.3660273496031903,-0.469203938438519,0.478193661765656,-0.35505433034833195,0.29064415037483443,0.26069741165391175,0.019764999574808394,-0.0007539921926616045,0.25308945598160837,0.17450431263556765,-0.2447780810251104,0.1436325136024863,-0.2568114189492212,-0.29515187339904936,-0.12335785345207571,-0.19638078697019637,-0.30471344723982735,0.03966004865581845,0.15316644839464777,0.1358301881354965,-0.20734006250027578,0.37518759443085925,-0.43023375513975964,0.020348728101601488,0.08254697717462706,0.05431031415078854,-0.45413261468582394,-0.060749732719401664,0.4022617582411442,-0.0857274118598699,0.4724399638813438,-0.49069030863247204,-0.009646957250024426,0.23119775894455627,0.27448314972251914,-0.3440922686269559,0.47423311816254826,-0.002302621488800395,0.18444723016340311,-0.32922386977533324,0.2496262032244784,0.01378771947231061,0.0729352660452904,0.3118115155497958,0.46638262657047874,0.4608446322822808,0.3443248145385078,-0.2889290958865322,0.5499052228235682,-0.01978777288870936,0.09243145749524334,-0.5058538788817727,-0.232521094959348,-0.4684777306821552,0.3773416197637639,-0.4276514859562815,0.23380451771732,-0.3779335491434932,-0.3117566690261469,-0.1472626404779534,-0.03664565893434798,0.002583659137063663,-0.3742172819025085,0.13741444227795108,-0.44527224161243956,0.10800049952757053,0.03653937614192439,0.1342856600781292,0.5012441115288773,0.13491389451755798,0.26675707999421755,-0.12001241835453309,0.21283043631133872,0.5082288826788184,0.39365326982156024,-0.11289781588914705,0.34510473217657944,-0.09982269818263233,-0.26042892051526234,-0.3062113743399537,0.037443693865449795,-0.0825929453352188,0.3275047235397929,-0.3686803268956786,0.0595329562333777,-0.1981508230220405,-0.2067010425719218,0.0006298678972563,0.447417406995734,0.33846208950486595,-0.13693284718476922,0.08576375151794902,-0.04469881762089778,-0.15940733214269479,0.07287820594931614,-0.3622678403285356,-0.08483178226671126,-0.19180970103343795,0.23953035200450754,-0.037318198854452984,-0.34223387924013593,-0.08360907953831927,0.028018032721321945,-0.3426035212248822,-0.40195076786779277,0.14998570270992342,-0.29641876712445253,0.19523080919325003,0.1814092833722778,-0.2620787979205593,-0.1713321710008168,0.4433442609231024,-0.1650153164519368
